{"learner":{"attributes":{"niter":"99"},"feature_names":[],"feature_types":[],"gradient_booster":{"model":{"gbtree_model_param":{"num_parallel_tree":"1","num_trees":"100","size_leaf_vector":"0"},"tree_info":[0,0,0,0,0,0,0,0,0,0,0,0,0,0,0,0,0,0,0,0,0,0,0,0,0,0,0,0,0,0,0,0,0,0,0,0,0,0,0,0,0,0,0,0,0,0,0,0,0,0,0,0,0,0,0,0,0,0,0,0,0,0,0,0,0,0,0,0,0,0,0,0,0,0,0,0,0,0,0,0,0,0,0,0,0,0,0,0,0,0,0,0,0,0,0,0,0,0,0,0],"trees":[{"base_weights":[-3.5202968E-1,-7.068102E-1,-2.0125423E-1,-5.649031E-1,-7.997196E-1,-2.43171E-1,-1.2472821E-2,-4.7860938E-1,-6.254191E-1,-7.272646E-1,-9.4674295E-1,-1.4304395E-1,-3.2529113E-1,4.0711183E-2,-2.6990423E-1,-2.9230917E-1,-1.0881432E-1,-2.9833135E-1,-5.9319884E-1,1.1531388E-1,-3.2923184E-2,-1.5613389E-1,-4.43464E-1,-1.6377006E-1,-3.114662E-1,-6.2263463E-2,-1.3814276E-1,-3.918641E-1,-2.6162884E-1,5.444393E-2,1.8038982E-1,-1.0583024E-1,-1.4189647E-2,-3.2179147E-2,-1.6633119E-1,-8.368809E-2,-6.14948E-3,-1.0464232E-1,-1.7070216E-1,-2.3132019E-1,-3.1575862E-1,1.1480222E-2,6.8968095E-2,2.0390946E-1,8.786476E-2,-3.3191662E-2,-1.2824734E-1,1.6371705E-2,-5.8849204E-2],"categories":[],"categories_nodes":[],"categories_segments":[],"categories_sizes":[],"default_left":[1,1,1,1,1,1,1,0,0,0,0,1,1,1,1,1,1,1,0,1,1,1,0,0,0,1,1,0,1,1,1,1,1,0,0,0,0,0,0,0,0,0,0,0,0,0,0,0,0],"id":0,"left_children":[1,3,5,7,9,11,13,-1,-1,-1,-1,15,17,19,21,23,25,27,-1,29,31,33,-1,-1,-1,35,37,-1,39,41,43,45,47,-1,-1,-1,-1,-1,-1,-1,-1,-1,-1,-1,-1,-1,-1,-1,-1],"loss_changes":[3.3290367E1,2.0005493E0,3.4787369E0,1.02775574E-1,4.8325348E-1,2.9135494E0,1.119978E0,0E0,0E0,0E0,0E0,8.0611634E-1,1.2459087E0,3.773424E-1,2.0720363E-1,2.2863865E-2,1.7570937E-1,5.1882935E-1,0E0,1.2485865E-1,4.630155E-2,7.2876215E-3,0E0,0E0,0E0,6.440529E-2,7.157922E-2,0E0,1.4515877E-1,1.1064459E-2,1.690203E-2,7.141687E-3,4.05443E-2,0E0,0E0,0E0,0E0,0E0,0E0,0E0,0E0,0E0,0E0,0E0,0E0,0E0,0E0,0E0,0E0],"parents":[2147483647,0,0,1,1,2,2,3,3,4,4,5,5,6,6,11,11,12,12,13,13,14,14,15,15,16,16,17,17,19,19,20,20,21,21,25,25,26,26,28,28,29,29,30,30,31,31,32,32],"right_children":[2,4,6,8,10,12,14,-1,-1,-1,-1,16,18,20,22,24,26,28,-1,30,32,34,-1,-1,-1,36,38,-1,40,42,44,46,48,-1,-1,-1,-1,-1,-1,-1,-1,-1,-1,-1,-1,-1,-1,-1,-1],"split_conditions":[1.6566114E0,3.355E1,2.2931113E0,4.6944443E1,3.9728146E1,4.25E1,9.1666664E1,-1.4597586E-1,-1.9075282E-1,-2.218157E-1,-2.887566E-1,1.9115436E0,1.2444444E2,4.995E1,1.4388889E2,2.3055555E1,2.8333336E1,1.9454076E0,-1.8092565E-1,2.5492125E0,1.162904E1,6.8879294E0,-1.3525653E-1,-4.994987E-2,-9.499719E-2,2.1523685E0,1.7276031E1,-1.1951855E-1,6.777778E1,2.3716836E0,3.715E1,1.1405738E1,7.48E1,-9.8146405E-3,-5.0731014E-2,-2.5524868E-2,-1.8755915E-3,-3.1915907E-2,-5.2064158E-2,-7.055266E-2,-9.630638E-2,3.5014679E-3,2.1035269E-2,6.2192384E-2,2.6798751E-2,-1.0123457E-2,-3.911544E-2,4.99337E-3,-1.7949007E-2],"split_indices":[7,4,7,0,4,0,0,0,0,0,0,7,0,0,0,0,0,7,0,7,1,4,0,0,0,7,4,0,0,7,0,4,0,0,0,0,0,0,0,0,0,0,0,0,0,0,0,0,0],"split_type":[0,0,0,0,0,0,0,0,0,0,0,0,0,0,0,0,0,0,0,0,0,0,0,0,0,0,0,0,0,0,0,0,0,0,0,0,0,0,0,0,0,0,0,0,0,0,0,0,0],"sum_hessian":[6.24E2,1.85E2,4.39E2,7.6E1,1.09E2,3.59E2,8E1,3.5E1,4.1E1,7.7E1,3.2E1,1.63E2,1.96E2,6.7E1,1.3E1,2.9E1,1.34E2,1.8E2,1.6E1,3.3E1,3.4E1,9E0,4E0,5E0,2.4E1,5.3E1,8.1E1,4.8E1,1.32E2,1.8E1,1.5E1,6E0,2.8E1,1E0,8E0,3.8E1,1.5E1,4.2E1,3.9E1,8.8E1,4.4E1,5E0,1.3E1,1.1E1,4E0,2E0,4E0,1.7E1,1.1E1],"tree_param":{"num_deleted":"0","num_feature":"8","num_nodes":"49","size_leaf_vector":"0"}},{"base_weights":[-2.4682266E-1,-1.3408047E-1,-4.9640128E-1,-1.16217226E-1,-4.250412E-1,-4.0416527E-1,-5.708699E-1,-1.5492637E-1,3.928075E-3,-3.1362113E-1,-4.3919796E-1,-5.2302194E-1,-7.145461E-1,-7.9886645E-2,-1.9382621E-1,4.4279974E-2,-7.576395E-2,-1.2697491E-1,-4.5662243E-2,-2.375527E-1,-1.625916E-1,7.6777893E-3,1.0364361E-1,-4.5943372E-2,-1.6012086E-1,-2.0381139E-1,-1.03413336E-1,-3.325937E-2,-6.1749842E-2,-2.913058E-1,-2.1715914E-1,-1.253997E-1,-1.9356386E-1,5.1055644E-2,-1.35591645E-2,1.5130292E-1,6.670855E-2,-9.2203505E-2,-2.9135905E-2],"categories":[],"categories_nodes":[],"categories_segments":[],"categories_sizes":[],"default_left":[1,1,1,1,0,1,1,1,1,0,0,0,0,1,1,1,1,1,1,1,1,1,1,1,0,0,0,0,0,0,0,0,0,0,0,0,0,0,0],"id":1,"left_children":[1,3,5,7,-1,9,11,13,15,-1,-1,-1,-1,17,19,21,23,25,27,29,31,33,35,37,-1,-1,-1,-1,-1,-1,-1,-1,-1,-1,-1,-1,-1,-1,-1],"loss_changes":[1.8504547E1,2.3206654E0,1.1773529E0,2.0050702E0,0E0,1.6359901E-1,3.8936234E-1,9.36121E-1,3.442216E-1,0E0,0E0,0E0,0E0,1.7630917E-1,2.5365257E-1,1.534758E-1,8.320409E-2,6.4011395E-2,1.1314914E-2,3.2111168E-2,1.2317252E-1,4.214688E-2,3.7434876E-2,1.9084007E-2,0E0,0E0,0E0,0E0,0E0,0E0,0E0,0E0,0E0,0E0,0E0,0E0,0E0,0E0,0E0],"parents":[2147483647,0,0,1,1,2,2,3,3,5,5,6,6,7,7,8,8,13,13,14,14,15,15,16,16,17,17,18,18,19,19,20,20,21,21,22,22,23,23],"right_children":[2,4,6,8,-1,10,12,14,16,-1,-1,-1,-1,18,20,22,24,26,28,30,32,34,36,38,-1,-1,-1,-1,-1,-1,-1,-1,-1,-1,-1,-1,-1,-1,-1],"split_conditions":[2.8023682E1,1.3694444E2,5.22E1,3.8537E2,-1.2963757E-1,3.1568014E1,3.785E1,3.361111E1,5.75E1,-9.565445E-2,-1.3395537E-1,-1.595217E-1,-2.1793656E-1,1.9922233E0,3.3497833E2,2.491115E0,1.4078597E1,2.854879E2,2.75E1,1.7945726E0,5.222222E1,2.5075E1,3.25E1,4.6215E2,-4.8836865E-2,-6.2162478E-2,-3.1541068E-2,-1.0144108E-2,-1.8833702E-2,-8.884827E-2,-6.623354E-2,-3.8246907E-2,-5.903698E-2,1.5571971E-2,-4.1355453E-3,4.614739E-2,2.0346109E-2,-2.812207E-2,-8.886451E-3],"split_indices":[4,0,0,2,0,4,4,0,0,0,0,0,0,7,2,7,4,2,0,7,0,0,0,2,0,0,0,0,0,0,0,0,0,0,0,0,0,0,0],"split_type":[0,0,0,0,0,0,0,0,0,0,0,0,0,0,0,0,0,0,0,0,0,0,0,0,0,0,0,0,0,0,0,0,0,0,0,0,0,0,0],"sum_hessian":[6.59E2,4.55E2,2.04E2,4.3E2,2.5E1,9.4E1,1.1E2,3.25E2,1.05E2,2.9E1,6.5E1,8.6E1,2.4E1,1.12E2,2.13E2,7E1,3.5E1,4.6E1,6.6E1,8.6E1,1.27E2,4.4E1,2.6E1,2.7E1,8E0,9E0,3.7E1,3.9E1,2.7E1,2E1,6.6E1,6E1,6.7E1,1.4E1,3E1,1E1,1.6E1,6E0,2.1E1],"tree_param":{"num_deleted":"0","num_feature":"8","num_nodes":"39","size_leaf_vector":"0"}},{"base_weights":[-1.7299797E-1,-3.3929107E-1,-9.189165E-2,-4.3499273E-1,-2.9141074E-1,-4.7551397E-2,-1.6471723E-1,-3.345624E-1,-4.5855424E-1,-2.5100845E-1,-3.427525E-1,-8.022204E-2,3.7247967E-2,-1.3794442E-1,-3.0563244E-1,-1.6560574E-1,-2.613261E-1,-1.04134455E-1,-4.9573015E-2,-2.0382374E-3,7.275108E-2,-1.6912384E-1,-7.467931E-2,-1.4992023E-1,-8.925441E-2,-3.0385625E-2,-7.885647E-2,1.0695024E-2,-4.4255972E-2,3.70037E-2,8.4625006E-2,-2.0780717E-1,-1.4897804E-1,-4.3279916E-2,-1.1448422E-1,-9.723228E-2,-1.6421407E-1,-6.691984E-2,-1.1268051E-1,-3.169939E-2,2.09357E-2,-8.427844E-2,-5.3828713E-2,-4.957779E-3,3.8182393E-2,-4.956917E-2,-1.7106513E-2,5.3695507E-2,1.1362642E-2,9.0786085E-2,-1.0867318E-3,-1.5735398E-1,-1.1557947E-1,-7.769163E-2,5.0492445E-3,-1.3348767E-1,-4.472764E-2],"categories":[],"categories_nodes":[],"categories_segments":[],"categories_sizes":[],"default_left":[1,1,1,1,1,1,1,0,0,1,0,1,1,1,0,0,0,1,1,1,1,1,1,1,1,1,1,1,1,1,1,0,1,1,1,0,0,0,0,0,0,0,0,0,0,0,0,0,0,0,0,0,0,0,0,0,0],"id":2,"left_children":[1,3,5,7,9,11,13,-1,-1,15,-1,17,19,21,-1,-1,-1,23,25,27,29,31,33,35,37,39,41,43,45,47,49,-1,51,53,55,-1,-1,-1,-1,-1,-1,-1,-1,-1,-1,-1,-1,-1,-1,-1,-1,-1,-1,-1,-1,-1,-1],"loss_changes":[8.87052E0,8.6300087E-1,1.4291193E0,1.2225151E-2,2.188921E-1,7.7317315E-1,5.9165287E-1,0E0,0E0,3.2502174E-2,0E0,1.4214909E-1,1.0894134E-1,2.6944757E-1,0E0,0E0,0E0,6.292403E-2,4.817249E-2,2.0900957E-2,1.4271483E-2,4.307556E-2,5.6287795E-2,3.614068E-3,3.7978828E-2,4.4393986E-3,2.1289289E-4,1.309693E-2,4.502982E-4,4.5258235E-3,1.5940964E-2,0E0,2.7632713E-4,4.8621874E-2,2.1867365E-2,0E0,0E0,0E0,0E0,0E0,0E0,0E0,0E0,0E0,0E0,0E0,0E0,0E0,0E0,0E0,0E0,0E0,0E0,0E0,0E0,0E0,0E0],"parents":[2147483647,0,0,1,1,2,2,3,3,4,4,5,5,6,6,9,9,11,11,12,12,13,13,17,17,18,18,19,19,20,20,21,21,22,22,23,23,24,24,25,25,26,26,27,27,28,28,29,29,30,30,32,32,33,33,34,34],"right_children":[2,4,6,8,10,12,14,-1,-1,16,-1,18,20,22,-1,-1,-1,24,26,28,30,32,34,36,38,40,42,44,46,48,50,-1,52,54,56,-1,-1,-1,-1,-1,-1,-1,-1,-1,-1,-1,-1,-1,-1,-1,-1,-1,-1,-1,-1,-1,-1],"split_conditions":[2.68425E2,1.4916636E0,5.485E1,4.4444443E1,5.222222E1,3.7849225E2,1.3694444E2,-1.02041535E-1,-1.3985905E-1,2.8333336E1,-1.0453951E-1,2.0442932E0,2.3716836E0,3.745E2,-9.3217894E-2,-5.050975E-2,-7.970446E-2,9.219071E-1,3.889E1,4.75E1,4.54E2,9.36993E-1,7.76E1,2.8333336E1,3.888889E1,3.777889E1,9.6686035E-1,4.555E2,5.055E2,2.861111E1,5.055E1,-6.338119E-2,9.6066225E-1,2.4722552E0,5.915E2,-2.9655846E-2,-5.0085295E-2,-2.0410553E-2,-3.4367558E-2,-9.668314E-3,6.3853883E-3,-2.5704926E-2,-1.6417759E-2,-1.5121226E-3,1.164563E-2,-1.5118597E-2,-5.2174865E-3,1.637713E-2,3.465606E-3,2.7689757E-2,-3.314532E-4,-4.7992967E-2,-3.525174E-2,-2.3695948E-2,1.5400196E-3,-4.0713742E-2,-1.364193E-2],"split_indices":[2,7,0,0,0,2,0,0,0,0,0,7,7,2,0,0,0,3,0,0,2,3,0,0,0,0,3,2,2,0,0,0,3,7,2,0,0,0,0,0,0,0,0,0,0,0,0,0,0,0,0,0,0,0,0,0,0],"split_type":[0,0,0,0,0,0,0,0,0,0,0,0,0,0,0,0,0,0,0,0,0,0,0,0,0,0,0,0,0,0,0,0,0,0,0,0,0,0,0,0,0,0,0,0,0,0,0,0,0,0,0,0,0,0,0,0,0],"sum_hessian":[6.59E2,2.15E2,4.44E2,6.9E1,1.46E2,2.77E2,1.67E2,1.6E1,5.3E1,8.5E1,6.1E1,2E2,7.7E1,1.42E2,2.5E1,1.1E1,7.4E1,1.11E2,8.9E1,3.7E1,4E1,9.4E1,4.8E1,2.5E1,8.6E1,5.5E1,3.4E1,2.9E1,8E0,1.1E1,2.9E1,2.9E1,6.5E1,2.8E1,2E1,7E0,1.8E1,4.6E1,4E1,5.4E1,1E0,2.6E1,8E0,1.9E1,1E1,6E0,2E0,6E0,5E0,2.7E1,2E0,4.9E1,1.6E1,1.6E1,1.2E1,1.5E1,5E0],"tree_param":{"num_deleted":"0","num_feature":"8","num_nodes":"57","size_leaf_vector":"0"}},{"base_weights":[-1.2291712E-1,-2.4509287E-1,-6.912572E-2,-2.7150434E-1,-1.6571638E-1,-8.604622E-2,2.8516161E-3,-3.3866832E-1,-2.4749176E-1,-1.2168698E-1,-7.292326E-2,-2.3018619E-2,2.1564305E-2,-1.4271113E-1,-1.0807536E-1,-8.15754E-2,-5.471257E-2,-3.3678561E-3,-9.383165E-2,3.692038E-2,-2.165678E-2,-1.4489093E-1,-3.4298897E-2,-3.3830673E-2,-1.1122375E-1,-5.9025764E-2,-8.69595E-2,-3.1232735E-2,-6.3262776E-2,-1.9974088E-2,4.4796046E-2,-4.3332033E-2,-1.15465015E-1,5.5687767E-2,1.9075934E-2,-1.1355678E-3,-3.293128E-2,-9.7730204E-2,-1.3162938E-1,-4.269076E-2,-7.881822E-2,-5.817863E-2,-8.937151E-2,2.341044E-2,-3.435488E-2,-7.9931065E-2,-4.1152067E-2,-5.3745722E-3,-6.0443625E-2,1.356415E-2,5.2945986E-2,2.546167E-2,6.867901E-2,-9.618342E-4,2.3847282E-2],"categories":[],"categories_nodes":[],"categories_segments":[],"categories_sizes":[],"default_left":[1,1,1,1,0,1,1,0,0,1,1,1,1,1,1,1,1,1,1,1,1,0,0,0,1,1,1,1,1,1,1,0,0,1,1,0,0,0,0,0,0,0,0,0,0,0,0,0,0,0,0,0,0,0,0],"id":3,"left_children":[1,3,5,7,-1,9,11,-1,-1,13,15,17,19,21,23,25,27,29,31,33,35,-1,-1,-1,37,39,41,43,45,47,49,-1,-1,51,53,-1,-1,-1,-1,-1,-1,-1,-1,-1,-1,-1,-1,-1,-1,-1,-1,-1,-1,-1,-1],"loss_changes":[4.248289E0,3.701048E-1,5.507326E-1,1.5326023E-1,0E0,1.6230893E-1,4.2613227E-2,0E0,0E0,1.2335181E-2,3.8078427E-2,5.1170602E-2,3.4648594E-2,3.3015013E-3,1.0963559E-2,1.6842365E-2,1.60923E-2,2.488939E-2,3.736481E-3,1.1663664E-2,3.2017338E-3,0E0,0E0,0E0,3.656447E-3,8.920953E-3,4.7968626E-3,5.2399654E-3,2.0666271E-2,1.3264362E-2,1.3181362E-3,0E0,0E0,5.319461E-3,2.0306874E-3,0E0,0E0,0E0,0E0,0E0,0E0,0E0,0E0,0E0,0E0,0E0,0E0,0E0,0E0,0E0,0E0,0E0,0E0,0E0,0E0],"parents":[2147483647,0,0,1,1,2,2,3,3,5,5,6,6,9,9,10,10,11,11,12,12,13,13,14,14,15,15,16,16,17,17,18,18,19,19,20,20,24,24,25,25,26,26,27,27,28,28,29,29,30,30,33,33,34,34],"right_children":[2,4,6,8,-1,10,12,-1,-1,14,16,18,20,22,24,26,28,30,32,34,36,-1,-1,-1,38,40,42,44,46,48,50,-1,-1,52,54,-1,-1,-1,-1,-1,-1,-1,-1,-1,-1,-1,-1,-1,-1,-1,-1,-1,-1,-1,-1],"split_conditions":[8.8702595E-1,8.644109E-1,4.18E2,8.263843E-1,-5.05435E-2,3.2696118E2,9.901632E-1,-1.03293836E-1,-7.548499E-2,9.112798E-1,3.657E2,9.846772E-1,1.1970369E1,1.1808246E1,2.944879E2,1.1466501E1,1.1519224E1,9.72E-1,1.1599628E1,5.418246E2,1.2004372E1,-4.4191737E-2,-1.0461164E-2,-1.0318356E-2,9.359232E-1,3.55E2,9.367449E-1,1.1427556E1,1.1625919E1,1.2236074E1,1.1739733E1,-1.321627E-2,-3.521683E-2,5.24E2,5.78E2,-3.4634818E-4,-1.004404E-2,-2.9807713E-2,-4.014696E-2,-1.3020682E-2,-2.4039557E-2,-1.7744482E-2,-2.725831E-2,7.1401843E-3,-1.0478239E-2,-2.4378976E-2,-1.2551381E-2,-1.6392446E-3,-1.8435307E-2,4.1370657E-3,1.6148526E-2,7.7658095E-3,2.0947099E-2,-2.9335945E-4,7.273421E-3],"split_indices":[3,3,2,3,0,2,3,0,0,3,2,3,1,1,2,1,1,3,1,2,1,0,0,0,3,2,3,1,1,1,1,0,0,2,2,0,0,0,0,0,0,0,0,0,0,0,0,0,0,0,0,0,0,0,0],"split_type":[0,0,0,0,0,0,0,0,0,0,0,0,0,0,0,0,0,0,0,0,0,0,0,0,0,0,0,0,0,0,0,0,0,0,0,0,0,0,0,0,0,0,0,0,0,0,0,0,0,0,0,0,0,0,0],"sum_hessian":[6.48E2,1.97E2,4.51E2,1.46E2,5.1E1,3.65E2,8.6E1,3.5E1,1.11E2,9.6E1,2.69E2,3.6E1,5E1,3.4E1,6.2E1,1.8E2,8.9E1,2.9E1,7E0,3.7E1,1.3E1,3.3E1,1E0,3E0,5.9E1,3.7E1,1.43E2,2.5E1,6.4E1,2.2E1,7E0,3E0,4E0,1.7E1,2E1,5E0,8E0,3.9E1,2E1,2.2E1,1.5E1,1.3E1,1.3E2,1E0,2.4E1,3.5E1,2.9E1,1.7E1,5E0,2E0,5E0,6E0,1.1E1,4E0,1.6E1],"tree_param":{"num_deleted":"0","num_feature":"8","num_nodes":"55","size_leaf_vector":"0"}},{"base_weights":[-8.7372E-2,-1.9263989E-1,-5.5001594E-2,-4.2969003E-1,-1.8332982E-1,-2.8740082E-2,-9.7646065E-2,-1.4675584E-1,-2.3308687E-1,-9.0195216E-2,-1.1025791E-2,-1.1060883E-1,-2.8009737E-2,-7.5390935E-2,-1.5014662E-1,-1.567735E-2,-9.577196E-2,-3.1078972E-2,9.118513E-3,-8.537409E-2,-1.5308014E-1,2.4916744E-3,-6.522514E-2,-1.8476483E-1,-1.3843033E-1,-8.284371E-3,-2.0308873E-2,-7.4048616E-2,-1.0962282E-1,-1.6815942E-2,-5.656038E-2,-3.905265E-3,2.9707128E-2,-1.2917255E-1,-6.788434E-2,-1.3451381E-1,-1.8411027E-1,-1.2709393E-2,3.501204E-2,-7.885687E-2,-3.3906687E-2,-1.4490187E-3,-1.4395215E-2,-7.707612E-2,-3.6614534E-2,-1.1683661E-1,-6.201563E-2,-1.6641701E-3,-2.6566792E-2,-4.510692E-2,-6.641129E-2,1.9017685E-2,-1.4409987E-2,5.74709E-2,1.6187016E-2,-5.3847145E-2,-1.3289577E-1,-7.0972584E-2,4.675165E-3,-1.5949506E-1,-1.11214034E-1,5.6556403E-3,-2.1500034E-2],"categories":[],"categories_nodes":[],"categories_segments":[],"categories_sizes":[],"default_left":[1,1,1,0,1,1,1,1,0,1,1,1,1,0,1,1,1,1,1,1,1,1,1,0,0,1,0,1,1,1,1,1,1,1,1,1,0,1,0,0,0,0,0,0,0,0,0,0,0,0,0,0,0,0,0,0,0,0,0,0,0,0,0],"id":4,"left_children":[1,3,5,-1,7,9,11,13,-1,15,17,19,21,-1,23,25,27,29,31,33,35,37,39,-1,-1,41,-1,43,45,47,49,51,53,55,57,59,-1,61,-1,-1,-1,-1,-1,-1,-1,-1,-1,-1,-1,-1,-1,-1,-1,-1,-1,-1,-1,-1,-1,-1,-1,-1,-1],"loss_changes":[2.197506E0,2.5668192E-1,5.5378807E-1,0E0,2.3512554E-1,3.3539343E-1,1.6750836E-1,9.974718E-3,0E0,2.7172744E-2,9.763713E-2,1.5733945E-1,3.5351314E-2,0E0,8.087397E-3,3.7198304E-5,1.1139333E-2,4.3025367E-2,3.256114E-2,6.936568E-2,8.64923E-3,9.343179E-3,3.303174E-3,0E0,0E0,1.4622012E-4,0E0,3.5119057E-4,5.4611564E-3,1.1627456E-2,1.8559396E-3,1.8333986E-2,1.6712077E-2,6.966293E-4,1.7137945E-2,5.5442452E-3,0E0,2.2203217E-3,0E0,0E0,0E0,0E0,0E0,0E0,0E0,0E0,0E0,0E0,0E0,0E0,0E0,0E0,0E0,0E0,0E0,0E0,0E0,0E0,0E0,0E0,0E0,0E0,0E0],"parents":[2147483647,0,0,1,1,2,2,4,4,5,5,6,6,7,7,9,9,10,10,11,11,12,12,14,14,15,15,16,16,17,17,18,18,19,19,20,20,21,21,22,22,25,25,27,27,28,28,29,29,30,30,31,31,32,32,33,33,34,34,35,35,37,37],"right_children":[2,4,6,-1,8,10,12,14,-1,16,18,20,22,-1,24,26,28,30,32,34,36,38,40,-1,-1,42,-1,44,46,48,50,52,54,56,58,60,-1,62,-1,-1,-1,-1,-1,-1,-1,-1,-1,-1,-1,-1,-1,-1,-1,-1,-1,-1,-1,-1,-1,-1,-1,-1,-1],"split_conditions":[8.644109E-1,7.865559E-1,5.2575E1,-1.3105546E-1,6.277778E1,9.219071E-1,9.901632E-1,2.8333336E1,-7.1091495E-2,1.777778E1,9.5735E-1,7.9165E1,8.6111115E1,-2.2994235E-2,8.263843E-1,8.978484E-1,3.638889E1,3.889E1,1.1624215E1,9.219071E-1,1.3694444E2,1.0131685E0,1.0150001E0,-5.6353275E-2,-4.2221252E-2,1.1748039E1,-6.1942064E-3,9.111358E-1,9.078559E-1,2.3055555E1,4.9444443E1,2.7575E1,3.25E1,1.1483237E1,1.2067565E1,9.493141E-1,-5.6153633E-2,6.277778E1,1.0678672E-2,-2.4051346E-2,-1.034154E-2,-4.4195072E-4,-4.3905405E-3,-2.3508217E-2,-1.1167433E-2,-3.5635166E-2,-1.8914768E-2,-5.075719E-4,-8.1028715E-3,-1.3757612E-2,-2.0255443E-2,5.8003943E-3,-4.3950463E-3,1.7528625E-2,4.93704E-3,-1.642338E-2,-4.053321E-2,-2.164664E-2,1.4259253E-3,-4.864599E-2,-3.392028E-2,1.7249703E-3,-6.5575107E-3],"split_indices":[3,3,0,0,0,3,3,0,0,0,3,0,0,0,3,3,0,0,1,3,0,3,3,0,0,1,0,3,3,0,0,0,0,1,1,3,0,0,0,0,0,0,0,0,0,0,0,0,0,0,0,0,0,0,0,0,0,0,0,0,0,0,0],"split_type":[0,0,0,0,0,0,0,0,0,0,0,0,0,0,0,0,0,0,0,0,0,0,0,0,0,0,0,0,0,0,0,0,0,0,0,0,0,0,0,0,0,0,0,0,0,0,0,0,0,0,0,0,0,0,0,0,0,0,0,0,0,0,0],"sum_hessian":[6.47E2,1.51E2,4.96E2,4E0,1.47E2,3.08E2,1.88E2,8.7E1,6E1,6.8E1,2.4E2,1.58E2,3E1,5E0,8.2E1,5E0,6.3E1,1.2E2,1.2E2,1.01E2,5.7E1,1.7E1,1.3E1,1.7E1,6.5E1,3E0,2E0,2.7E1,3.6E1,7.8E1,4.2E1,7.4E1,4.6E1,2.7E1,7.4E1,3.9E1,1.8E1,1.2E1,5E0,8E0,5E0,2E0,1E0,2.4E1,3E0,3E1,6E0,3.1E1,4.7E1,2.2E1,2E1,2.3E1,5.1E1,1.4E1,3.2E1,2E0,2.5E1,7.1E1,3E0,1.6E1,2.3E1,4E0,8E0],"tree_param":{"num_deleted":"0","num_feature":"8","num_nodes":"63","size_leaf_vector":"0"}},{"base_weights":[-5.946077E-2,-1.1296005E-1,-2.9460035E-2,-9.694504E-2,-1.9758637E-1,-3.0187907E-4,-5.5742025E-2,-1.5906842E-1,-9.000123E-2,-1.3743071E-2,3.640872E-2,-4.6454124E-2,-1.2694865E-1,-6.719471E-2,-1.0643419E-1,1.6853086E-3,-2.115339E-2,6.5121025E-2,2.9708276E-2,-5.4663353E-2,-1.3268057E-2,-5.1212735E-2,-7.7066444E-2,-1.1428191E-1,-8.6186476E-2,-9.259327E-3,1.0135384E-2,-2.4824899E-2,2.1243605E-3,2.6866695E-2,7.221273E-2,2.513795E-2,5.4464024E-2,-4.379548E-2,-7.413739E-2,5.003944E-3,-2.4896557E-2,-5.379328E-2,-8.336352E-3,-7.932663E-2,-1.8981641E-2,-1.505309E-2,-4.536005E-3,-2.480857E-3,1.1815784E-2,-3.2427054E-2,-1.9158935E-2,7.46201E-3,-8.975809E-3,2.875423E-2,1.1775309E-2,-5.573963E-2,-2.9140597E-2,-8.546061E-2,-5.8036957E-2,-1.1196084E-2,1.8847976E-2,-3.2477807E-2,-1.8452576E-3],"categories":[],"categories_nodes":[],"categories_segments":[],"categories_sizes":[],"default_left":[1,1,1,1,0,1,1,0,1,1,1,1,0,1,1,1,1,1,1,1,1,1,1,0,0,1,1,1,1,0,0,1,0,1,1,1,1,0,0,0,0,0,0,0,0,0,0,0,0,0,0,0,0,0,0,0,0,0,0],"id":5,"left_children":[1,3,5,7,-1,9,11,-1,13,15,17,19,-1,21,23,25,27,29,31,33,35,37,39,-1,-1,41,43,45,47,-1,-1,49,-1,51,53,55,57,-1,-1,-1,-1,-1,-1,-1,-1,-1,-1,-1,-1,-1,-1,-1,-1,-1,-1,-1,-1,-1,-1],"loss_changes":[1.0078332E0,2.8714085E-1,3.1034857E-1,6.8507195E-2,0E0,9.573316E-2,1.3497245E-1,0E0,5.8434486E-2,1.6270403E-2,8.069389E-3,5.1036805E-2,0E0,8.043736E-3,6.0403347E-3,4.440548E-3,8.257322E-3,5.0147995E-4,3.6091283E-3,2.8922588E-2,8.411143E-3,3.0921847E-3,4.401952E-3,0E0,0E0,5.0640095E-4,6.0172216E-4,2.9538348E-3,8.9646096E-4,0E0,0E0,1.5460104E-3,0E0,1.587972E-2,4.7025084E-3,3.7994026E-3,4.1342545E-3,0E0,0E0,0E0,0E0,0E0,0E0,0E0,0E0,0E0,0E0,0E0,0E0,0E0,0E0,0E0,0E0,0E0,0E0,0E0,0E0,0E0,0E0],"parents":[2147483647,0,0,1,1,2,2,3,3,5,5,6,6,8,8,9,9,10,10,11,11,13,13,14,14,15,15,16,16,17,17,18,18,19,19,20,20,21,21,22,22,25,25,26,26,27,27,28,28,31,31,33,33,34,34,35,35,36,36],"right_children":[2,4,6,8,-1,10,12,-1,14,16,18,20,-1,22,24,26,28,30,32,34,36,38,40,-1,-1,42,44,46,48,-1,-1,50,-1,52,54,56,58,-1,-1,-1,-1,-1,-1,-1,-1,-1,-1,-1,-1,-1,-1,-1,-1,-1,-1,-1,-1,-1,-1],"split_conditions":[1.7945726E0,7.555556E1,4.995E1,1.826E2,-6.0263846E-2,2.2047143E0,1.1472222E2,-4.851587E-2,4.25E1,2.3055555E1,2.0555555E1,2.3022525E0,-3.871934E-2,3.25E1,2.4648999E2,2.0331511E0,9.6194994E-1,2.3022525E0,1.0131685E0,6.972E1,6.277778E1,1.1890238E1,2.9045E2,-3.4855984E-2,-2.6286876E-2,1.9661143E0,1.1416202E1,1.9807637E0,3.75E1,8.194342E-3,2.2024885E-2,3.854E1,1.6611528E-2,9.4915485E-1,2.1011624E0,9.8678267E-1,5.915E2,-1.6406951E-2,-2.5425875E-3,-2.4194622E-2,-5.7894005E-3,-4.5911926E-3,-1.3834817E-3,-7.566614E-4,3.6038142E-3,-9.890252E-3,-5.8434755E-3,2.275913E-3,-2.737622E-3,8.77004E-3,3.5914695E-3,-1.7000588E-2,-8.887882E-3,-2.6065487E-2,-1.7701272E-2,-3.4148057E-3,5.748633E-3,-9.905731E-3,-5.628036E-4],"split_indices":[7,0,0,2,0,7,0,0,0,0,0,7,0,0,2,7,3,7,3,0,0,1,2,0,0,7,1,7,0,0,0,0,0,3,7,3,2,0,0,0,0,0,0,0,0,0,0,0,0,0,0,0,0,0,0,0,0,0,0],"split_type":[0,0,0,0,0,0,0,0,0,0,0,0,0,0,0,0,0,0,0,0,0,0,0,0,0,0,0,0,0,0,0,0,0,0,0,0,0,0,0,0,0,0,0,0,0,0,0,0,0,0,0,0,0,0,0,0,0,0,0],"sum_hessian":[6.29E2,2.25E2,4.04E2,1.91E2,3.4E1,1.92E2,2.12E2,1.7E1,1.74E2,1.41E2,5.1E1,1.89E2,2.3E1,7.5E1,9.9E1,4.6E1,9.5E1,8E0,4.3E1,1.51E2,3.8E1,3.1E1,4.4E1,6.8E1,3.1E1,2E1,2.6E1,8.2E1,1.3E1,2E0,6E0,3.8E1,5E0,9.9E1,5.2E1,1.5E1,2.3E1,2.9E1,2E0,4.2E1,2E0,8E0,1.2E1,3E0,2.3E1,3.3E1,4.9E1,9E0,4E0,2.9E1,9E0,5.3E1,4.6E1,2.8E1,2.4E1,7E0,8E0,1.7E1,6E0],"tree_param":{"num_deleted":"0","num_feature":"8","num_nodes":"59","size_leaf_vector":"0"}},{"base_weights":[-4.2891707E-2,-9.524399E-2,-2.6145544E-2,-6.1629977E-2,-1.1177634E-1,-6.8008485E-3,-4.4224974E-2,-4.999138E-2,-9.0480976E-2,-2.1479824E-1,-1.0537954E-1,8.692045E-3,-2.3321306E-2,-3.3834424E-2,-7.327755E-2,-5.4646283E-4,-5.1245186E-2,-1.791687E-2,-9.468461E-2,-9.528852E-2,-1.6975777E-1,9.480917E-4,2.7165152E-2,-1.3975957E-2,-3.6832344E-2,-1.37230335E-2,-5.1753603E-2,-2.7008664E-2,-8.220253E-2,-6.0270336E-2,-4.0639326E-2,-2.4911119E-2,-9.750544E-2,4.8507815E-3,-1.5407149E-2,-2.7276787E-3,3.323464E-2,-9.027887E-3,-2.5647335E-2,-8.0254924E-4,-4.1206647E-2,1.0222099E-2,-1.9111311E-2,-4.0668502E-2,-6.2453322E-2,1.8324465E-2,-3.7907735E-2,-6.815176E-2,-1.0103699E-1,-1.3376487E-2,-6.213241E-2,-4.6577144E-2,1.0513293E-2,-3.7447326E-3,-3.0718336E-2,-8.7458566E-2,-1.0907225E-1,2.3841072E-2,2.401202E-3,-1.9064844E-2,8.017044E-3,1.7546913E-2,-1.4346898E-2,3.4849163E-2,1.4027968E-2,-9.706894E-3,4.84551E-3,-2.7241586E-2,-1.2459934E-2,1.2520902E-2,-5.9714196E-3,-4.2483293E-2,-1.0874725E-2,-3.7821755E-4,1.7680142E-2,-2.4445409E-2,-1.5040077E-2,-7.449094E-3,-4.2589523E-2,2.8900623E-2,-1.4139265E-3,-9.0770284E-4,-4.1917995E-2,-7.946409E-2,-4.6315275E-2,-1.0331564E-1,-2.7732069E-2],"categories":[],"categories_nodes":[],"categories_segments":[],"categories_sizes":[],"default_left":[1,1,1,1,1,1,1,1,1,0,1,1,1,1,1,0,1,0,0,1,0,1,1,1,1,1,1,1,1,1,1,1,1,1,1,1,1,1,1,1,1,1,1,1,0,1,1,1,1,0,0,0,0,0,0,0,0,0,0,0,0,0,0,0,0,0,0,0,0,0,0,0,0,0,0,0,0,0,0,0,0,0,0,0,0,0,0],"id":6,"left_children":[1,3,5,7,9,11,13,15,17,-1,19,21,23,25,27,-1,29,-1,-1,31,-1,33,35,37,39,41,43,45,47,49,51,53,55,57,59,61,63,65,67,69,71,73,75,77,-1,79,81,83,85,-1,-1,-1,-1,-1,-1,-1,-1,-1,-1,-1,-1,-1,-1,-1,-1,-1,-1,-1,-1,-1,-1,-1,-1,-1,-1,-1,-1,-1,-1,-1,-1,-1,-1,-1,-1,-1,-1],"loss_changes":[5.559677E-1,7.869184E-2,1.6897392E-1,1.3273343E-2,4.458368E-2,6.035089E-2,7.298872E-2,2.45177E-3,2.5740117E-3,0E0,4.7488928E-2,1.7426942E-2,1.3879482E-2,6.6320375E-2,2.4621516E-2,0E0,1.2837127E-3,0E0,0E0,1.1144817E-2,0E0,5.6278976E-3,6.6222847E-3,3.7532635E-3,7.21677E-3,1.1678405E-2,9.083658E-3,6.623707E-3,7.404655E-3,8.2796067E-4,6.868113E-3,3.7663942E-4,2.2238493E-4,3.245547E-3,1.609379E-3,1.900768E-3,4.4142455E-4,5.1804073E-4,8.105207E-5,4.879707E-4,1.1256561E-3,1.3506662E-3,1.2176316E-3,2.9373243E-3,0E0,6.6713255E-4,1.4457488E-3,4.7183335E-3,6.425977E-4,0E0,0E0,0E0,0E0,0E0,0E0,0E0,0E0,0E0,0E0,0E0,0E0,0E0,0E0,0E0,0E0,0E0,0E0,0E0,0E0,0E0,0E0,0E0,0E0,0E0,0E0,0E0,0E0,0E0,0E0,0E0,0E0,0E0,0E0,0E0,0E0,0E0,0E0],"parents":[2147483647,0,0,1,1,2,2,3,3,4,4,5,5,6,6,7,7,8,8,10,10,11,11,12,12,13,13,14,14,16,16,19,19,21,21,22,22,23,23,24,24,25,25,26,26,27,27,28,28,29,29,30,30,31,31,32,32,33,33,34,34,35,35,36,36,37,37,38,38,39,39,40,40,41,41,42,42,43,43,45,45,46,46,47,47,48,48],"right_children":[2,4,6,8,10,12,14,16,18,-1,20,22,24,26,28,-1,30,-1,-1,32,-1,34,36,38,40,42,44,46,48,50,52,54,56,58,60,62,64,66,68,70,72,74,76,78,-1,80,82,84,86,-1,-1,-1,-1,-1,-1,-1,-1,-1,-1,-1,-1,-1,-1,-1,-1,-1,-1,-1,-1,-1,-1,-1,-1,-1,-1,-1,-1,-1,-1,-1,-1,-1,-1,-1,-1,-1,-1],"split_conditions":[2.39495E2,1.6276362E0,1.6712114E0,3.7176582E1,1.681E2,1.758E1,1.898509E0,1.2464578E0,1.2860484E0,-6.551346E-2,1.9567107E0,2.3022525E0,2.1995926E1,1.758E1,1.1849206E1,-1.6667116E-4,3.355E1,-5.464645E-3,-2.8878806E-2,3.1070187E1,-5.1776122E-2,1.5896609E0,4.275E2,1.5896609E0,1.2464578E0,1.13256445E1,2.1995926E1,1.9286662E0,2.1922288E0,2.01E2,2.225E2,1.7973804E0,3.625389E1,1.3784803E1,1.6276362E0,4.1125E2,1.6276362E0,1.5606523E0,3.7047882E2,2.5593E2,3.1880253E1,2.9944382E0,2.1352634E0,3.008E2,-1.9048264E-2,5.868246E2,4.572E2,2.1313562E0,4.232E2,-4.079829E-3,-1.8950386E-2,-1.42060295E-2,3.2065543E-3,-1.1421435E-3,-9.369093E-3,-2.6674863E-2,-3.326704E-2,7.2715273E-3,7.3236664E-4,-5.814777E-3,2.4451984E-3,5.3518084E-3,-4.3758038E-3,1.0628995E-2,4.2785304E-3,-2.9606028E-3,1.4778805E-3,-8.3086835E-3,-3.80028E-3,3.8188752E-3,-1.821283E-3,-1.2957404E-2,-3.3167913E-3,-1.1535636E-4,5.3924434E-3,-7.45585E-3,-4.5872238E-3,-2.2719738E-3,-1.2989805E-2,8.814691E-3,-4.3124758E-4,-2.7684937E-4,-1.2784989E-2,-2.4236549E-2,-1.4126159E-2,-3.151127E-2,-8.458281E-3],"split_indices":[2,6,6,4,2,4,6,6,6,0,6,7,4,4,4,0,4,0,0,4,0,6,2,6,6,4,4,6,6,2,2,6,4,4,6,2,6,6,2,2,4,7,7,2,0,2,2,7,2,0,0,0,0,0,0,0,0,0,0,0,0,0,0,0,0,0,0,0,0,0,0,0,0,0,0,0,0,0,0,0,0,0,0,0,0,0,0],"split_type":[0,0,0,0,0,0,0,0,0,0,0,0,0,0,0,0,0,0,0,0,0,0,0,0,0,0,0,0,0,0,0,0,0,0,0,0,0,0,0,0,0,0,0,0,0,0,0,0,0,0,0,0,0,0,0,0,0,0,0,0,0,0,0,0,0,0,0,0,0,0,0,0,0,0,0,0,0,0,0,0,0,0,0,0,0,0,0],"sum_hessian":[6.36E2,1.53E2,4.83E2,5.2E1,1.01E2,2.34E2,2.49E2,3.9E1,1.3E1,4E0,9.7E1,1.21E2,1.13E2,1.85E2,6.4E1,1E0,3.8E1,1E0,1.2E1,8.6E1,1.1E1,8.6E1,3.5E1,6.8E1,4.5E1,8.8E1,9.7E1,1.1E1,5.3E1,1.8E1,2E1,3E0,8.3E1,7E1,1.6E1,6E0,2.9E1,4.9E1,1.9E1,5E0,4E1,1.6E1,7.2E1,5E1,4.7E1,2E0,9E0,3.3E1,2E1,1E0,1.7E1,1.8E1,2E0,1E0,2E0,4.9E1,3.4E1,7E0,6.3E1,1.4E1,2E0,2E0,4E0,2.6E1,3E0,4.7E1,2E0,1.6E1,3E0,1E0,4E0,3.8E1,2E0,7E0,9E0,2.9E1,4.3E1,3E0,4.7E1,1E0,1E0,1E0,8E0,2E1,1.3E1,1.9E1,1E0],"tree_param":{"num_deleted":"0","num_feature":"8","num_nodes":"87","size_leaf_vector":"0"}},{"base_weights":[-3.210152E-2,-6.631771E-2,-2.0748487E-2,-5.635161E-2,-1.0205844E-1,-1.4526791E-2,-5.545735E-2,-1.8618922E-1,-5.2726697E-2,-8.8689074E-2,-1.4743908E-1,-2.2560235E-2,2.448202E-3,-5.93889E-2,-2.3121636E-3,-3.3751648E-2,-5.5451453E-2,-2.7841174E-3,-2.683566E-2,2.2306336E-2,-3.1666919E-3,-7.765704E-2,-5.213503E-2,2.4493277E-2,-1.2571907E-2,-4.322731E-2,-1.6503658E-2,-5.6729674E-2,-1.8285433E-2,-7.206956E-3,4.2104884E-3,-3.8454693E-2,-2.2404352E-2,7.2170678E-3,3.253305E-2,-1.0295107E-2,9.297573E-3,-3.0336747E-2,-8.194396E-2,-3.8530007E-2,-6.112746E-2,-1.1983067E-3,-1.511573E-2,-2.0329878E-3,-4.7143444E-2,-4.631281E-4,-1.8729E-2,-6.4158894E-2,-4.772011E-2,1.2672123E-2,-8.291996E-3,7.988055E-3,-1.2940996E-3,-3.4918975E-2,-5.751396E-2,-2.0033456E-2,-4.0785417E-2,2.3938349E-2,2.0006218E-3,-5.443424E-3,3.5246793E-2,-4.0582013E-3,-2.1778964E-2,3.0961984E-3,2.4237657E-2,-4.0529106E-2,-1.1692981E-2],"categories":[],"categories_nodes":[],"categories_segments":[],"categories_sizes":[],"default_left":[1,1,1,1,1,1,1,0,1,0,0,1,1,1,1,1,1,1,1,1,1,1,1,0,1,1,1,1,0,1,1,1,1,1,1,1,1,0,0,1,0,0,0,0,0,0,0,0,0,0,0,0,0,0,0,0,0,0,0,0,0,0,0,0,0,0,0],"id":7,"left_children":[1,3,5,7,9,11,13,-1,15,-1,-1,17,19,21,23,25,27,29,31,33,35,37,39,-1,41,43,45,47,-1,49,51,53,55,57,59,61,63,-1,-1,65,-1,-1,-1,-1,-1,-1,-1,-1,-1,-1,-1,-1,-1,-1,-1,-1,-1,-1,-1,-1,-1,-1,-1,-1,-1,-1,-1],"loss_changes":[2.4412912E-1,5.0171554E-2,1.0198563E-1,4.901412E-2,6.9452226E-3,5.5284135E-2,1.490657E-2,0E0,4.4878125E-3,0E0,0E0,2.3176879E-2,1.4677309E-2,4.829824E-3,1.9580289E-3,2.2284426E-3,3.998369E-3,1.5771454E-3,1.0774627E-2,4.2403014E-3,9.247316E-3,9.6268207E-4,3.8842112E-3,0E0,1.2654887E-4,1.6787052E-3,2.7689151E-4,3.7656128E-3,0E0,7.737349E-4,4.2621637E-4,2.1023527E-3,6.4171404E-3,1.0860419E-3,1.9438565E-3,4.6387827E-3,3.4456197E-3,0E0,0E0,7.600412E-4,0E0,0E0,0E0,0E0,0E0,0E0,0E0,0E0,0E0,0E0,0E0,0E0,0E0,0E0,0E0,0E0,0E0,0E0,0E0,0E0,0E0,0E0,0E0,0E0,0E0,0E0,0E0],"parents":[2147483647,0,0,1,1,2,2,3,3,4,4,5,5,6,6,8,8,11,11,12,12,13,13,14,14,15,15,16,16,17,17,18,18,19,19,20,20,21,21,22,22,24,24,25,25,26,26,27,27,29,29,30,30,31,31,32,32,33,33,34,34,35,35,36,36,39,39],"right_children":[2,4,6,8,10,12,14,-1,16,-1,-1,18,20,22,24,26,28,30,32,34,36,38,40,-1,42,44,46,48,-1,50,52,54,56,58,60,62,64,-1,-1,66,-1,-1,-1,-1,-1,-1,-1,-1,-1,-1,-1,-1,-1,-1,-1,-1,-1,-1,-1,-1,-1,-1,-1,-1,-1,-1,-1],"split_conditions":[2.39495E2,1.8775136E0,1.898509E0,1.4505E2,1.995613E0,9.6066225E-1,1.0115E0,-5.6787714E-2,1.5105946E0,-2.7050167E-2,-4.4968918E-2,1.451545E0,1.3992391E0,9.452442E-1,5.458246E2,2.2069E2,8.721527E-1,3.4447174E2,9.112798E-1,3.860036E2,4.98E2,8.6800003E-1,1.9850184E0,7.47045E-3,1.9230448E0,1.671E2,1.2949128E0,2.12795E2,-5.577057E-3,8.807493E-1,3.679782E2,1.7973804E0,1.8308537E0,9.6385E-1,9.6283174E-1,3.9147345E2,5.915E2,-9.252708E-3,-2.4992907E-2,4.96055E2,-1.8643877E-2,-3.6548355E-4,-4.6102977E-3,-6.200613E-4,-1.4378751E-2,-1.4125407E-4,-5.712345E-3,-1.9568464E-2,-1.4554634E-2,3.8649975E-3,-2.5290588E-3,2.4363569E-3,-3.947004E-4,-1.0650287E-2,-1.7541759E-2,-6.1102044E-3,-1.2439553E-2,7.3011965E-3,6.101896E-4,-1.6602443E-3,1.0750272E-2,-1.2377515E-3,-6.642584E-3,9.4434054E-4,7.3924856E-3,-1.23613775E-2,-3.5663594E-3],"split_indices":[2,6,6,2,6,3,3,0,6,0,0,6,6,3,2,2,3,2,3,2,2,3,6,0,6,2,6,2,0,3,2,6,6,3,3,2,2,0,0,2,0,0,0,0,0,0,0,0,0,0,0,0,0,0,0,0,0,0,0,0,0,0,0,0,0,0,0],"split_type":[0,0,0,0,0,0,0,0,0,0,0,0,0,0,0,0,0,0,0,0,0,0,0,0,0,0,0,0,0,0,0,0,0,0,0,0,0,0,0,0,0,0,0,0,0,0,0,0,0,0,0,0,0,0,0,0,0,0,0,0,0,0,0,0,0,0,0],"sum_hessian":[6.31E2,1.56E2,4.75E2,1.24E2,3.2E1,4.04E2,7.1E1,2E0,1.22E2,2.7E1,5E0,2.74E2,1.3E2,6.6E1,5E0,1.7E1,1.05E2,4.9E1,2.25E2,2.8E1,1.02E2,1.6E1,5E1,1E0,4E0,1E1,7E0,1.01E2,4E0,3E1,1.9E1,6E1,1.65E2,1.2E1,1.6E1,6.5E1,3.7E1,2E0,1.4E1,2.2E1,2.8E1,1E0,3E0,1E0,9E0,1E0,6E0,5.2E1,4.9E1,1E0,2.9E1,1.1E1,8E0,5.3E1,7E0,1.48E2,1.7E1,2E0,1E1,1E0,1.5E1,4.3E1,2.2E1,2.7E1,1E1,2E1,2E0],"tree_param":{"num_deleted":"0","num_feature":"8","num_nodes":"67","size_leaf_vector":"0"}},{"base_weights":[-2.1307E-2,-4.1317597E-2,-9.230183E-3,-6.8351366E-2,-3.568728E-2,-1.2965255E-2,4.2518317E-3,-8.180987E-2,-4.7753707E-2,-4.465874E-2,-3.0224953E-2,-1.604878E-2,-8.483758E-3,1.1937204E-3,1.9666681E-2,-9.525949E-2,-6.0421966E-2,-1.7544685E-2,-5.728945E-2,-2.3976665E-2,-4.9275745E-2,-1.6852098E-2,-3.1909686E-2,-1.469027E-2,-3.1099854E-2,1.4035894E-2,-1.0012837E-2,3.216539E-2,-6.106257E-5,2.7950745E-2,-2.4915934E-3,-4.1900963E-2,-8.698874E-2,-1.7229542E-3,-2.036444E-2,-1.3139024E-2,-2.6494293E-2,-5.2319475E-2,-2.5538273E-2,-1.1287159E-2,-2.517329E-2,-3.30246E-2,-1.4861287E-2,-1.6117461E-2,2.2476483E-2,-1.103602E-2,9.104005E-3,-6.54073E-3,5.772165E-3,3.8506225E-2,1.9179162E-2,-1.5363197E-2,1.1210541E-2,-5.180062E-2,-2.3621108E-2,-1.3621087E-2,-3.7029486E-2,-1.6335351E-2,-9.526208E-4,-2.9239038E-2,-4.4574533E-2,-2.1440971E-3,-2.4606219E-2,-2.3537315E-2,-1.3383002E-2,-8.299555E-3,-2.5289694E-2,3.0234207E-3,-1.2764436E-2,1.3705095E-2,-3.7171314E-3],"categories":[],"categories_nodes":[],"categories_segments":[],"categories_sizes":[],"default_left":[1,1,1,1,1,1,1,1,1,1,1,1,1,1,1,0,1,1,0,1,1,1,1,1,0,0,1,0,1,1,1,1,0,0,0,0,0,0,1,1,0,1,1,1,0,1,0,1,1,0,0,0,0,0,0,0,0,0,0,0,0,0,0,0,0,0,0,0,0,0,0],"id":8,"left_children":[1,3,5,7,9,11,13,15,17,19,21,23,25,27,29,-1,31,33,-1,35,37,39,41,43,-1,-1,45,-1,47,49,51,53,-1,-1,-1,-1,-1,-1,55,57,-1,59,61,63,-1,65,-1,67,69,-1,-1,-1,-1,-1,-1,-1,-1,-1,-1,-1,-1,-1,-1,-1,-1,-1,-1,-1,-1,-1,-1],"loss_changes":[1.6032538E-1,3.561291E-2,2.100334E-2,7.7362508E-3,8.892208E-3,4.3687783E-3,4.266293E-3,1.1480451E-3,4.4681206E-3,6.1712116E-3,2.4587065E-3,3.468968E-3,4.7891745E-3,2.9943937E-3,2.8230497E-3,0E0,2.2596084E-3,2.325935E-4,0E0,8.8454224E-5,3.143385E-3,5.030823E-4,1.7330945E-3,9.804111E-3,0E0,0E0,2.5845943E-3,0E0,2.8725571E-3,2.7995463E-4,1.0540719E-3,4.0508993E-4,0E0,0E0,0E0,0E0,0E0,0E0,7.2810426E-4,6.104873E-4,0E0,3.462486E-3,1.0625953E-3,3.1747594E-3,0E0,4.5096725E-3,0E0,2.181473E-3,3.0620606E-3,0E0,0E0,0E0,0E0,0E0,0E0,0E0,0E0,0E0,0E0,0E0,0E0,0E0,0E0,0E0,0E0,0E0,0E0,0E0,0E0,0E0,0E0],"parents":[2147483647,0,0,1,1,2,2,3,3,4,4,5,5,6,6,7,7,8,8,9,9,10,10,11,11,12,12,13,13,14,14,16,16,17,17,19,19,20,20,21,21,22,22,23,23,26,26,28,28,29,29,30,30,31,31,38,38,39,39,41,41,42,42,43,43,45,45,47,47,48,48],"right_children":[2,4,6,8,10,12,14,16,18,20,22,24,26,28,30,-1,32,34,-1,36,38,40,42,44,-1,-1,46,-1,48,50,52,54,-1,-1,-1,-1,-1,-1,56,58,-1,60,62,64,-1,66,-1,68,70,-1,-1,-1,-1,-1,-1,-1,-1,-1,-1,-1,-1,-1,-1,-1,-1,-1,-1,-1,-1,-1,-1],"split_conditions":[1.7945726E0,8.355483E-1,9.7465E-1,1.1942986E1,1.5232201E0,2.0751424E0,1.0131685E0,8.18854E-1,1.1953627E1,1.4823998E0,8.57316E-1,2.068071E0,9.5479476E-1,2.2781203E0,1.0195E0,-2.9054144E-2,8.2845545E-1,1.1950563E1,-1.7473282E-2,1.4690824E0,1.187532E1,1.1927845E1,1.1913194E1,9.5221037E-1,-9.485456E-3,4.2809476E-3,2.3022525E0,9.810444E-3,1.1706932E1,1.1821074E1,1.1737669E1,1.1813379E1,-2.6531566E-2,-5.2550103E-4,-6.211154E-3,-4.0074023E-3,-8.080759E-3,-1.595744E-2,1.188311E1,1.537805E0,-7.6778536E-3,1.1810183E1,1.1993069E1,1.1552059E1,6.8553276E-3,2.212288E0,2.7767215E-3,1.1521178E1,9.9549997E-1,1.1744399E-2,5.8496445E-3,-4.6857754E-3,3.419215E-3,-1.5799189E-2,-7.204438E-3,-4.1544316E-3,-1.1293993E-2,-4.9822824E-3,-2.9054936E-4,-8.917907E-3,-1.3595233E-2,-6.539496E-4,-7.5048967E-3,-7.178881E-3,-4.0818155E-3,-2.5313643E-3,-7.713357E-3,9.2214334E-4,-3.893153E-3,4.180054E-3,-1.1337252E-3],"split_indices":[7,3,3,1,7,7,3,3,1,7,3,7,3,7,3,0,3,1,0,7,1,1,1,3,0,0,7,0,1,1,1,1,0,0,0,0,0,0,1,7,0,1,1,1,0,7,0,1,3,0,0,0,0,0,0,0,0,0,0,0,0,0,0,0,0,0,0,0,0,0,0],"split_type":[0,0,0,0,0,0,0,0,0,0,0,0,0,0,0,0,0,0,0,0,0,0,0,0,0,0,0,0,0,0,0,0,0,0,0,0,0,0,0,0,0,0,0,0,0,0,0,0,0,0,0,0,0,0,0,0,0,0,0,0,0,0,0,0,0,0,0,0,0,0,0],"sum_hessian":[6.64E2,2.49E2,4.15E2,4.1E1,2.08E2,3.25E2,9E1,2.3E1,1.8E1,7.6E1,1.32E2,1.91E2,1.34E2,7.6E1,1.4E1,1.2E1,1.1E1,5E0,1.3E1,1.5E1,6.1E1,1.6E1,1.16E2,1.77E2,1.4E1,8E0,1.26E2,2E0,7.4E1,1E1,4E0,8E0,3E0,1E0,4E0,4E0,1.1E1,5.3E1,8E0,1.1E1,5E0,1.08E2,8E0,1.71E2,6E0,1.2E2,6E0,3.5E1,3.9E1,3E0,7E0,2E0,2E0,4E0,4E0,5E0,3E0,7E0,4E0,8.4E1,2.4E1,4E0,4E0,4.4E1,1.27E2,1.02E2,1.8E1,1.4E1,2.1E1,2.1E1,1.8E1],"tree_param":{"num_deleted":"0","num_feature":"8","num_nodes":"71","size_leaf_vector":"0"}},{"base_weights":[-1.6109092E-2,-2.9713633E-3,-2.5490265E-2,-1.5716668E-2,1.8557998E-3,-1.4877144E-1,-2.409614E-2,-2.8911553E-2,-1.2430684E-2,7.7760774E-3,-1.6444909E-3,-3.4182314E-2,-1.5712854E-2,-7.7154273E-3,-3.180129E-2,-2.9585625E-3,-1.6645249E-2,5.3414986E-3,2.4495138E-2,-3.478028E-3,7.014547E-3,-2.9980829E-2,-7.2222635E-2,-1.2908042E-2,-3.845706E-2,-3.3948846E-2,-4.089093E-3,-7.753452E-3,1.2976795E-2,-1.0459671E-2,-3.1237558E-2,2.0418812E-2,4.0180874E-3,-9.3636485E-3,-2.5238425E-3,-5.011E-4,1.0555255E-2,-5.7529923E-2,-2.7652012E-2,-1.5205001E-2,-4.258865E-3,-4.4817194E-2,-1.8425733E-2,-7.3878467E-3,-3.586616E-2,1.4506727E-2,-1.19696725E-2,-5.72081E-3,-1.35643575E-2,-1.1508091E-2,-3.4032643E-2,6.0365803E-4,7.3029012E-3,-3.2327124E-3,-1.9752791E-2,2.3555798E-3,-4.6524135E-3,-2.1359622E-3,5.471468E-3,1.1582025E-2,-1.9097626E-3,-2.2010464E-2,-3.7101444E-2,-1.215722E-2,-2.7506186E-2,1.1357442E-2,-7.91558E-3,-8.640751E-3,-4.665291E-2,-2.8430405E-3,-2.9401992E-2],"categories":[],"categories_nodes":[],"categories_segments":[],"categories_sizes":[],"default_left":[1,1,1,1,1,0,1,1,1,1,1,1,1,0,1,1,1,1,0,1,1,1,0,1,1,1,0,1,0,1,1,0,1,1,1,1,1,0,1,1,1,1,1,0,0,0,0,0,0,0,0,0,0,0,0,0,0,0,0,0,0,0,0,0,0,0,0,0,0,0,0],"id":9,"left_children":[1,3,5,7,9,-1,11,13,15,17,19,21,23,-1,25,27,29,31,-1,33,35,37,-1,39,41,43,-1,45,-1,47,49,-1,51,53,55,57,59,-1,61,63,65,67,69,-1,-1,-1,-1,-1,-1,-1,-1,-1,-1,-1,-1,-1,-1,-1,-1,-1,-1,-1,-1,-1,-1,-1,-1,-1,-1,-1,-1],"loss_changes":[7.917228E-2,1.6579034E-2,6.0866266E-2,2.849117E-3,4.074435E-3,0E0,3.091748E-2,6.1215647E-4,2.3859274E-3,2.8405422E-3,1.9931037E-3,2.4685442E-2,1.2581199E-2,0E0,5.753413E-4,1.6287805E-3,3.464263E-3,1.2149316E-3,0E0,5.548131E-4,5.90725E-4,8.225173E-3,0E0,3.5907365E-3,1.9770563E-3,2.952097E-4,0E0,1.6753019E-3,0E0,3.7849415E-4,2.7009659E-4,0E0,6.7975326E-4,8.278773E-4,9.45717E-4,8.9801455E-5,2.1409953E-4,0E0,6.806627E-3,5.101841E-3,2.374076E-3,6.59436E-4,1.1136867E-3,0E0,0E0,0E0,0E0,0E0,0E0,0E0,0E0,0E0,0E0,0E0,0E0,0E0,0E0,0E0,0E0,0E0,0E0,0E0,0E0,0E0,0E0,0E0,0E0,0E0,0E0,0E0,0E0],"parents":[2147483647,0,0,1,1,2,2,3,3,4,4,6,6,7,7,8,8,9,9,10,10,11,11,12,12,14,14,15,15,16,16,17,17,19,19,20,20,21,21,23,23,24,24,25,25,27,27,29,29,30,30,32,32,33,33,34,34,35,35,36,36,38,38,39,39,40,40,41,41,42,42],"right_children":[2,4,6,8,10,-1,12,14,16,18,20,22,24,-1,26,28,30,32,-1,34,36,38,-1,40,42,44,-1,46,-1,48,50,-1,52,54,56,58,60,-1,62,64,66,68,70,-1,-1,-1,-1,-1,-1,-1,-1,-1,-1,-1,-1,-1,-1,-1,-1,-1,-1,-1,-1,-1,-1,-1,-1,-1,-1,-1,-1],"split_conditions":[1.6276362E0,9.0041375E-1,1.4515E2,2.045E2,1.451545E0,-4.5375288E-2,3.185E2,1.3406206E0,8.5830307E-1,4.545E2,9.7567534E-1,1.932239E0,2.048455E0,-2.3532053E-3,8.6534715E-1,2.2355E2,1.5896482E0,1.2464578E0,7.471017E-3,3.135E2,1.5261118E0,1.7255E2,-2.2027904E-2,4.98E2,4.232E2,8.0538476E-1,-1.2471733E-3,2.06475E2,3.9579226E-3,8.8082635E-1,8.615E-1,6.2277378E-3,9.5109475E-1,3.0905E2,3.429473E2,6.255E2,1.0115E0,-1.7546628E-2,1.8308537E0,1.8717941E0,5.348246E2,2.1922288E0,9.8835003E-1,-2.2532933E-3,-1.0939179E-2,4.424552E-3,-3.6507503E-3,-1.744847E-3,-4.137129E-3,-3.509968E-3,-1.0379956E-2,1.841157E-4,2.2273848E-3,-9.859774E-4,-6.0246014E-3,7.1845186E-4,-1.4189861E-3,-6.514685E-4,1.6687978E-3,3.5325177E-3,-5.824776E-4,-6.7131915E-3,-1.1315941E-2,-3.7079523E-3,-8.389387E-3,3.4640199E-3,-2.414252E-3,-2.6354291E-3,-1.4229137E-2,-8.671274E-4,-8.967607E-3],"split_indices":[6,3,2,2,6,0,2,6,3,2,3,6,6,0,3,2,6,6,0,2,6,2,0,2,2,3,0,2,0,3,3,0,3,2,2,2,3,0,6,6,2,6,3,0,0,0,0,0,0,0,0,0,0,0,0,0,0,0,0,0,0,0,0,0,0,0,0,0,0,0,0],"split_type":[0,0,0,0,0,0,0,0,0,0,0,0,0,0,0,0,0,0,0,0,0,0,0,0,0,0,0,0,0,0,0,0,0,0,0,0,0,0,0,0,0,0,0,0,0,0,0,0,0,0,0,0,0,0,0,0,0,0,0,0,0,0,0,0,0,0,0,0,0,0,0],"sum_hessian":[6.42E2,2.68E2,3.74E2,7.3E1,1.95E2,3E0,3.71E2,1.3E1,6E1,7.2E1,1.23E2,1.67E2,2.04E2,2E0,1.1E1,1.9E1,4.1E1,6.4E1,8E0,1.02E2,2.1E1,1.52E2,1.5E1,1.83E2,2.1E1,1E1,1E0,1.5E1,4E0,3E1,1.1E1,4E0,6E1,1.3E1,8.9E1,7E0,1.4E1,1E1,1.42E2,1.44E2,3.9E1,1.5E1,6E0,1E0,9E0,2E0,1.3E1,1.3E1,1.7E1,2E0,9E0,3E1,3E1,9E0,4E0,2.7E1,6.2E1,6E0,1E0,1.3E1,1E0,9.1E1,5.1E1,1.17E2,2.7E1,7E0,3.2E1,1E0,1.4E1,3E0,3E0],"tree_param":{"num_deleted":"0","num_feature":"8","num_nodes":"71","size_leaf_vector":"0"}},{"base_weights":[-1.1854606E-2,-6.692391E-2,-1.0316106E-2,-1.1473997E-1,-4.9711365E-2,1.0110597E-3,-1.4671154E-2,-3.7340955E-3,5.797249E-3,-1.1439949E-2,-2.6248358E-2,5.7395344E-4,-5.8278926E-3,4.598011E-3,1.953125E-2,-1.839753E-2,-6.612518E-3,-3.4494586E-2,-1.586459E-2,-1.9268636E-3,6.0183555E-3,-1.2356033E-2,-3.4815494E-3,5.0517144E-3,-9.487133E-3,2.8852388E-2,5.3272992E-3,-7.773721E-3,-2.034397E-2,-7.834486E-3,1.5221137E-2,-2.5583766E-2,-4.925487E-2,-2.0039052E-2,-8.658064E-3,5.9663714E-4,-7.4195988E-3,-1.0222256E-3,1.08824475E-2,-1.6490221E-2,3.722906E-5,1.0576396E-3,-7.5183418E-3,-6.337166E-4,6.1166333E-3,1.1768937E-4,7.024606E-3,-1.9337015E-2,2.6929397E-3,-3.8520645E-2,-1.8631168E-2,1.2742441E-2,-8.1960065E-3,2.1444611E-2,2.2193491E-3,-3.0233985E-2,-1.7590733E-2,-5.9064113E-2,-3.5859656E-2,-1.3823114E-2,-2.4225557E-2,5.130672E-3,-1.3949089E-2],"categories":[],"categories_nodes":[],"categories_segments":[],"categories_sizes":[],"default_left":[1,1,1,0,0,1,1,1,1,1,1,1,1,1,1,1,1,1,1,1,1,1,1,1,0,0,1,1,1,1,1,1,1,1,1,0,0,0,0,0,0,0,0,0,0,0,0,0,0,0,0,0,0,0,0,0,0,0,0,0,0,0,0],"id":10,"left_children":[1,3,5,-1,-1,7,9,11,13,15,17,19,21,23,25,27,29,31,33,35,37,39,41,43,-1,-1,45,47,49,51,53,55,57,59,61,-1,-1,-1,-1,-1,-1,-1,-1,-1,-1,-1,-1,-1,-1,-1,-1,-1,-1,-1,-1,-1,-1,-1,-1,-1,-1,-1,-1],"loss_changes":[5.599004E-2,9.110771E-3,3.217823E-2,0E0,0E0,4.1550878E-3,1.7319039E-2,8.332016E-4,1.4089961E-3,1.23056285E-2,8.186698E-3,4.336756E-4,9.0665184E-4,5.911172E-4,7.7307364E-4,2.9643215E-3,5.988855E-3,6.105341E-3,1.2404192E-3,3.0936708E-4,3.5358465E-4,8.2039135E-4,8.691685E-4,5.0640176E-4,0E0,0E0,3.4542507E-5,3.0778004E-3,3.2362118E-3,1.6591847E-3,9.234026E-4,8.434281E-4,5.0991774E-4,4.197955E-4,1.4577426E-3,0E0,0E0,0E0,0E0,0E0,0E0,0E0,0E0,0E0,0E0,0E0,0E0,0E0,0E0,0E0,0E0,0E0,0E0,0E0,0E0,0E0,0E0,0E0,0E0,0E0,0E0,0E0,0E0],"parents":[2147483647,0,0,1,1,2,2,5,5,6,6,7,7,8,8,9,9,10,10,11,11,12,12,13,13,14,14,15,15,16,16,17,17,18,18,19,19,20,20,21,21,22,22,23,23,26,26,27,27,28,28,29,29,30,30,31,31,32,32,33,33,34,34],"right_children":[2,4,6,-1,-1,8,10,12,14,16,18,20,22,24,26,28,30,32,34,36,38,40,42,44,-1,-1,46,48,50,52,54,56,58,60,62,-1,-1,-1,-1,-1,-1,-1,-1,-1,-1,-1,-1,-1,-1,-1,-1,-1,-1,-1,-1,-1,-1,-1,-1,-1,-1,-1,-1],"split_conditions":[1.73845E2,1.4515E2,1.5615809E0,-3.499569E-2,-1.5161967E-2,3.4795E2,1.898509E0,1.3523612E0,1.0035E0,2.944879E2,3.5415E2,1.3127706E0,1.451545E0,5.51055E2,1.3890756E0,2.01E2,5.915E2,1.9567107E0,4.3795E2,9.4058824E-1,3.17E2,2.935E2,9.3269694E-1,9.4905937E-1,-2.8935755E-3,8.7999785E-3,1.0126685E0,1.826E2,2.0525E2,9.075E-1,1.8116246E0,2.505E2,3.138E2,1.9286662E0,5.54E2,1.8197433E-4,-2.2629777E-3,-3.117788E-4,3.3191466E-3,-5.0295177E-3,1.1354863E-5,3.2258008E-4,-2.2930943E-3,-1.9328356E-4,1.8655732E-3,3.589526E-5,2.142505E-3,-5.8977897E-3,8.2134665E-4,-1.1748797E-2,-5.682506E-3,3.8864447E-3,-2.499782E-3,6.5406067E-3,6.769015E-4,-9.221366E-3,-5.365174E-3,-1.8014554E-2,-1.0937195E-2,-4.21605E-3,-7.3887953E-3,1.564855E-3,-4.254472E-3],"split_indices":[2,2,6,0,0,2,6,6,3,2,2,6,6,2,6,2,2,6,2,3,2,2,3,3,0,0,3,2,2,3,6,2,2,6,2,0,0,0,0,0,0,0,0,0,0,0,0,0,0,0,0,0,0,0,0,0,0,0,0,0,0,0,0],"split_type":[0,0,0,0,0,0,0,0,0,0,0,0,0,0,0,0,0,0,0,0,0,0,0,0,0,0,0,0,0,0,0,0,0,0,0,0,0,0,0,0,0,0,0,0,0,0,0,0,0,0,0,0,0,0,0,0,0,0,0,0,0,0,0],"sum_hessian":[6.68E2,1.7E1,6.51E2,3E0,1.4E1,1.81E2,4.7E2,9.1E1,9E1,3.69E2,1.01E2,3E1,6.1E1,8.4E1,6E0,1.5E2,2.19E2,5.5E1,4.6E1,2.1E1,9E0,1.5E1,4.6E1,8.2E1,2E0,3E0,3E0,2.4E1,1.26E2,2.08E2,1.1E1,3.6E1,1.9E1,2.8E1,1.8E1,1.5E1,6E0,4E0,5E0,1.1E1,4E0,2.2E1,2.4E1,1.3E1,6.9E1,1E0,2E0,1.1E1,1.3E1,9E0,1.17E2,3E0,2.05E2,7E0,4E0,2.1E1,1.5E1,9E0,1E1,1.3E1,1.5E1,5E0,1.3E1],"tree_param":{"num_deleted":"0","num_feature":"8","num_nodes":"63","size_leaf_vector":"0"}},{"base_weights":[-8.118137E-3,-2.3348551E-2,-4.8775915E-3,-7.3457405E-2,-1.9916344E-2,2.3749855E-3,-8.693903E-3,-1.293024E-2,-2.9564802E-2,-9.868527E-4,8.604244E-3,-6.999357E-3,-2.2288045E-2,-7.6916073E-3,-4.0973555E-2,-2.59901E-2,-5.296439E-2,2.5476313E-3,-3.8830915E-3,7.020362E-3,2.0951202E-2,-1.2156074E-2,-2.4953024E-3,-3.0739004E-2,-1.0720871E-2,-9.532154E-3,6.553953E-3,-1.7052494E-2,-4.8789367E-2,-1.8292094E-2,-2.9304175E-2,-7.000296E-3,3.620963E-3,-2.2497675E-3,-1.131779E-2,2.0353943E-2,5.7045002E-3,2.4565956E-2,-3.6865473E-4,-9.350862E-3,-2.5583677E-2,4.007376E-3,-3.7965777E-3,-3.214379E-2,-1.1127437E-2,-1.4964048E-2,-3.5463944E-3,-1.5025484E-2,-6.505131E-3,1.6892314E-2,2.0155075E-3,-2.3262074E-2,-9.288962E-3,-3.0159239E-2,-3.5362542E-3,6.643215E-3,-2.2858212E-2,1.9755483E-2,2.5592383E-3,-9.254761E-3,-7.435237E-4,-1.6336512E-2,-1.024276E-3,2.8023144E-2,5.9000948E-3,4.5191995E-3,1.6890729E-2,-1.224922E-2,4.6437588E-3,-1.7629681E-2,-3.273137E-2,-2.4334479E-3,1.4768127E-2,-2.1916395E-2,-2.2694005E-3,-1.3722618E-2,-3.342822E-2,-4.06288E-3,-1.6935099E-2,6.1452985E-3,-5.808822E-3],"categories":[],"categories_nodes":[],"categories_segments":[],"categories_sizes":[],"default_left":[1,1,1,0,1,1,1,1,1,1,1,1,1,1,1,1,0,1,1,1,1,1,1,1,1,1,1,0,0,1,1,1,1,1,1,1,1,0,0,1,1,1,1,1,0,1,1,0,0,0,0,0,0,0,0,0,0,0,0,0,0,0,0,0,0,0,0,0,0,0,0,0,0,0,0,0,0,0,0,0,0],"id":11,"left_children":[1,3,5,-1,7,9,11,13,15,17,19,21,23,25,27,29,-1,31,33,35,37,39,41,43,45,47,49,-1,-1,51,53,55,57,59,61,63,65,-1,-1,67,69,71,73,75,-1,77,79,-1,-1,-1,-1,-1,-1,-1,-1,-1,-1,-1,-1,-1,-1,-1,-1,-1,-1,-1,-1,-1,-1,-1,-1,-1,-1,-1,-1,-1,-1,-1,-1,-1,-1],"loss_changes":[3.231225E-2,1.8315144E-2,1.5049852E-2,0E0,6.964881E-3,3.9455425E-3,8.044774E-3,9.233909E-3,2.3875423E-3,1.2690079E-3,1.1436199E-3,7.3555773E-3,3.4828465E-3,1.5307718E-3,1.0376442E-3,5.0994754E-4,0E0,5.992412E-4,8.0028E-4,9.3660015E-4,5.4851826E-4,5.3355247E-3,1.4621776E-3,2.4842285E-4,4.9489783E-4,7.3367916E-4,2.943941E-4,0E0,0E0,4.5510055E-4,4.8824586E-4,1.449998E-3,8.2309265E-4,5.945389E-4,6.031904E-4,3.8890797E-4,6.66174E-4,0E0,0E0,5.0864983E-3,8.442737E-4,2.0458724E-3,3.9073834E-3,1.4491379E-5,0E0,1.6754889E-4,2.1111094E-4,0E0,0E0,0E0,0E0,0E0,0E0,0E0,0E0,0E0,0E0,0E0,0E0,0E0,0E0,0E0,0E0,0E0,0E0,0E0,0E0,0E0,0E0,0E0,0E0,0E0,0E0,0E0,0E0,0E0,0E0,0E0,0E0,0E0,0E0],"parents":[2147483647,0,0,1,1,2,2,4,4,5,5,6,6,7,7,8,8,9,9,10,10,11,11,12,12,13,13,14,14,15,15,17,17,18,18,19,19,20,20,21,21,22,22,23,23,24,24,25,25,26,26,29,29,30,30,31,31,32,32,33,33,34,34,35,35,36,36,39,39,40,40,41,41,42,42,43,43,45,45,46,46],"right_children":[2,4,6,-1,8,10,12,14,16,18,20,22,24,26,28,30,-1,32,34,36,38,40,42,44,46,48,50,-1,-1,52,54,56,58,60,62,64,66,-1,-1,68,70,72,74,76,-1,78,80,-1,-1,-1,-1,-1,-1,-1,-1,-1,-1,-1,-1,-1,-1,-1,-1,-1,-1,-1,-1,-1,-1,-1,-1,-1,-1,-1,-1,-1,-1,-1,-1,-1,-1],"split_conditions":[1.5380569E0,1.681E2,1.5982263E0,-2.2404509E-2,1.7973804E0,2.1313562E0,1.948621E0,8.57316E-1,1.995613E0,1.451545E0,1.5615809E0,1.9922233E0,9.7719836E-1,1.5200746E0,1.5105946E0,2.045E2,-1.6154138E-2,8.938756E-1,2.0714493E0,2.1620393E0,5.395E2,1.955957E0,3.429473E2,5.115E2,9.9399126E-1,1.9064E2,2.17E2,-5.201011E-3,-1.4880757E-2,1.826E2,2.2355E2,2.5593E2,8.957583E-1,8.73262E-1,2.106999E0,3.676782E2,1.0033572E0,7.492617E-3,-1.12439695E-4,9.339267E-1,1.759257E0,3.4196594E2,3.46425E2,2.66995E2,-3.3938685E-3,4.111E2,5.58055E2,-4.582773E-3,-1.984065E-3,5.1521556E-3,6.147298E-4,-7.0949327E-3,-2.8331336E-3,-9.198568E-3,-1.0785576E-3,2.0261807E-3,-6.9717546E-3,6.0254224E-3,7.805677E-4,-2.8227023E-3,-2.2677473E-4,-4.9826363E-3,-3.1240418E-4,8.547059E-3,1.799529E-3,1.3783559E-3,5.1516723E-3,-3.7360121E-3,1.4163464E-3,-5.377053E-3,-9.983067E-3,-7.4220164E-4,4.504279E-3,-6.6845007E-3,-6.9216714E-4,-4.1853986E-3,-1.0195606E-2,-1.2391784E-3,-5.1652053E-3,1.8743161E-3,-1.7716907E-3],"split_indices":[7,2,6,0,6,7,6,3,6,6,6,7,3,7,6,2,0,3,7,7,2,7,2,2,3,2,2,0,0,2,2,2,3,3,7,2,3,0,0,3,6,2,2,2,0,2,2,0,0,0,0,0,0,0,0,0,0,0,0,0,0,0,0,0,0,0,0,0,0,0,0,0,0,0,0,0,0,0,0,0,0],"split_type":[0,0,0,0,0,0,0,0,0,0,0,0,0,0,0,0,0,0,0,0,0,0,0,0,0,0,0,0,0,0,0,0,0,0,0,0,0,0,0,0,0,0,0,0,0,0,0,0,0,0,0,0,0,0,0,0,0,0,0,0,0,0,0,0,0,0,0,0,0,0,0,0,0,0,0,0,0,0,0,0,0],"sum_hessian":[6.56E2,1.14E2,5.42E2,6E0,1.08E2,1.87E2,3.55E2,6.4E1,4.4E1,1.22E2,6.5E1,3.17E2,3.8E1,5.5E1,9E0,4E1,4E0,5.5E1,6.7E1,5.9E1,6E0,1.47E2,1.7E2,2.1E1,1.7E1,4.9E1,6E0,3E0,6E0,1.4E1,2.6E1,5E0,5E1,5.6E1,1.1E1,4E0,5.5E1,5E0,1E0,1.23E2,2.4E1,2.8E1,1.42E2,1.9E1,2E0,1E1,7E0,1.6E1,3.3E1,1E0,5E0,8E0,6E0,2.5E1,1E0,3E0,2E0,2E0,4.8E1,9E0,4.7E1,7E0,4E0,2E0,2E0,5.1E1,4E0,1.02E2,2.1E1,1.3E1,1.1E1,1.8E1,1E1,1E1,1.32E2,2E0,1.7E1,2E0,8E0,1E0,6E0],"tree_param":{"num_deleted":"0","num_feature":"8","num_nodes":"81","size_leaf_vector":"0"}},{"base_weights":[-5.860317E-3,-8.155124E-2,-5.368094E-3,-2.5471414E-3,-1.4321742E-2,-8.450045E-3,1.5189413E-4,-1.9214056E-2,-5.766535E-3,-7.246069E-3,-2.45811E-2,-4.4659132E-4,1.7494164E-2,-1.6469609E-2,-2.7089296E-2,-1.0627839E-3,-9.807693E-3,-3.1022558E-3,-1.0553223E-2,-1.7163793E-3,2.0155357E-3,2.0695694E-2,6.7175627E-3,-2.514951E-2,-1.5461536E-2,-3.7127405E-2,-1.6511722E-2,-5.4151937E-3,4.8289946E-3,-1.6941058E-2,-7.703378E-3,-5.238619E-3,8.957969E-3,-2.8216166E-2,-6.2485766E-3,2.6598703E-3,-3.2011964E-3,1.2349034E-2,1.0494423E-4,1.0368481E-2,2.4818325E-2,2.9889941E-3,8.951634E-3,-3.69744E-3,-1.6336504E-2,3.5075422E-3,-2.0470455E-2,5.5177677E-3,-1.4531693E-2,2.733473E-2,-2.4056255E-3,7.888284E-3,-1.0188072E-2],"categories":[],"categories_nodes":[],"categories_segments":[],"categories_sizes":[],"default_left":[1,0,1,1,1,1,1,1,1,1,0,1,1,1,1,1,1,1,1,1,1,1,1,0,1,0,1,1,1,0,1,0,0,0,0,0,0,0,0,0,0,0,0,0,0,0,0,0,0,0,0,0,0],"id":12,"left_children":[1,-1,3,5,7,9,11,13,15,17,-1,19,21,23,25,27,29,31,33,35,37,39,41,-1,43,-1,45,47,49,-1,51,-1,-1,-1,-1,-1,-1,-1,-1,-1,-1,-1,-1,-1,-1,-1,-1,-1,-1,-1,-1,-1,-1],"loss_changes":[2.303403E-2,0E0,1.5800172E-2,7.616849E-3,6.1674174E-3,2.7350942E-3,3.4225353E-3,1.6071014E-3,1.0540583E-3,1.8995577E-3,0E0,1.0007743E-3,2.404931E-4,2.4989806E-4,1.8290747E-3,7.185227E-4,3.1982223E-4,1.695889E-3,5.7542417E-3,1.3795781E-3,2.1507014E-3,8.327421E-5,6.563161E-6,0E0,6.3953735E-4,0E0,1.1020633E-3,1.674908E-3,2.0196023E-3,0E0,1.048879E-3,0E0,0E0,0E0,0E0,0E0,0E0,0E0,0E0,0E0,0E0,0E0,0E0,0E0,0E0,0E0,0E0,0E0,0E0,0E0,0E0,0E0,0E0],"parents":[2147483647,0,0,2,2,3,3,4,4,5,5,6,6,7,7,8,8,9,9,11,11,12,12,13,13,14,14,15,15,16,16,17,17,18,18,19,19,20,20,21,21,22,22,24,24,26,26,27,27,28,28,30,30],"right_children":[2,-1,4,6,8,10,12,14,16,18,-1,20,22,24,26,28,30,32,34,36,38,40,42,-1,44,-1,46,48,50,-1,52,-1,-1,-1,-1,-1,-1,-1,-1,-1,-1,-1,-1,-1,-1,-1,-1,-1,-1,-1,-1,-1,-1],"split_conditions":[7.865559E-1,-2.4873128E-2,6.972E1,9.0041375E-1,2.1280618E0,6.277778E1,2.9944382E0,8.555556E1,8.385E1,8.57316E-1,-7.497236E-3,2.1452856E0,4.995E1,1.3594844E0,9.362329E-1,9.714E-1,2.2047143E0,8.539014E-1,8.583471E-1,1.9454076E0,2.17457E0,3.5E1,1.0150001E0,-7.6706004E-3,8.211416E-1,-1.1323859E-2,1.5583334E2,2.1784706E0,9.762678E-1,-5.167023E-3,2.2664235E0,-1.5977789E-3,2.7321805E-3,-8.605931E-3,-1.9058159E-3,8.112605E-4,-9.7636494E-4,3.7664555E-3,3.200799E-5,3.1623868E-3,7.5695897E-3,9.116432E-4,2.7302485E-3,-1.1277192E-3,-4.982634E-3,1.0698003E-3,-6.243489E-3,1.6829192E-3,-4.4321665E-3,8.337093E-3,-7.3371583E-4,2.4059266E-3,-3.107362E-3],"split_indices":[3,0,0,3,7,0,7,0,0,3,0,7,0,7,3,3,7,3,3,7,7,0,3,0,3,0,0,7,3,0,7,0,0,0,0,0,0,0,0,0,0,0,0,0,0,0,0,0,0,0,0,0,0],"split_type":[0,0,0,0,0,0,0,0,0,0,0,0,0,0,0,0,0,0,0,0,0,0,0,0,0,0,0,0,0,0,0,0,0,0,0,0,0,0,0,0,0,0,0,0,0,0,0,0,0,0,0,0,0],"sum_hessian":[6.29E2,3E0,6.26E2,4.77E2,1.49E2,1.49E2,3.28E2,9.4E1,5.5E1,1.4E2,9E0,3.18E2,1E1,7.2E1,2.2E1,2.6E1,2.9E1,6.3E1,7.7E1,2.1E2,1.08E2,7E0,3E0,5E0,6.7E1,1E1,1.2E1,1.5E1,1.1E1,5E0,2.4E1,5.4E1,9E0,1.4E1,6.3E1,5.3E1,1.57E2,1.6E1,9.2E1,3E0,4E0,2E0,1E0,5E0,6.2E1,2E0,1E1,7E0,8E0,2E0,9E0,3E0,2.1E1],"tree_param":{"num_deleted":"0","num_feature":"8","num_nodes":"53","size_leaf_vector":"0"}},{"base_weights":[-3.611689E-3,-6.642775E-2,-3.1244312E-3,-6.65203E-3,-4.2728065E-5,-6.092369E-3,-3.3433132E-2,1.6400778E-3,-8.876696E-3,1.5044292E-3,-7.409089E-3,-3.877189E-2,-3.369663E-3,1.0431112E-3,1.5581866E-2,-1.4118057E-2,-1.2999625E-3,-2.803837E-3,1.0307884E-2,-1.7071703E-2,-5.8452855E-3,2.5301466E-2,7.804131E-4,1.8434018E-2,8.807381E-4,-8.669384E-4,-1.4505062E-2,4.038372E-3,-4.772188E-3,1.16347E-3,-2.9874027E-2,1.40242595E-2,4.0571317E-3,-3.0123835E-2,-1.2732819E-2,-2.9101046E-3,-9.707629E-3,3.5340334E-3,-1.0653829E-3,7.764727E-3,2.1897325E-2,-6.4923763E-3,7.8134835E-3,-1.5302791E-2,-7.1367696E-3,8.642627E-5,1.3230771E-2,5.29695E-4,-2.6156286E-2],"categories":[],"categories_nodes":[],"categories_segments":[],"categories_sizes":[],"default_left":[1,0,1,1,1,1,1,1,1,1,1,0,0,1,1,1,1,1,1,1,1,0,1,1,1,0,1,1,1,0,0,0,0,0,0,0,0,0,0,0,0,0,0,0,0,0,0,0,0],"id":13,"left_children":[1,-1,3,5,7,9,11,13,15,17,19,-1,-1,21,23,25,27,29,31,33,35,-1,37,39,41,-1,43,45,47,-1,-1,-1,-1,-1,-1,-1,-1,-1,-1,-1,-1,-1,-1,-1,-1,-1,-1,-1,-1],"loss_changes":[1.9871045E-2,0E0,7.087616E-3,4.352768E-3,5.2027414E-3,3.001999E-3,8.323621E-4,2.4306441E-3,2.2055414E-3,1.7356446E-3,3.7533706E-3,0E0,0E0,1.7837072E-3,4.8692268E-4,1.566573E-4,4.6413354E-4,3.3640258E-3,2.915538E-4,1.5985481E-3,2.477155E-3,0E0,1.4319817E-3,1.9948347E-4,2.0407584E-4,0E0,7.888023E-5,3.6213515E-4,1.7144949E-3,0E0,0E0,0E0,0E0,0E0,0E0,0E0,0E0,0E0,0E0,0E0,0E0,0E0,0E0,0E0,0E0,0E0,0E0,0E0,0E0],"parents":[2147483647,0,0,2,2,3,3,4,4,5,5,6,6,7,7,8,8,9,9,10,10,13,13,14,14,15,15,16,16,17,17,18,18,19,19,20,20,22,22,23,23,24,24,26,26,27,27,28,28],"right_children":[2,-1,4,6,8,10,12,14,16,18,20,-1,-1,22,24,26,28,30,32,34,36,-1,38,40,42,-1,44,46,48,-1,-1,-1,-1,-1,-1,-1,-1,-1,-1,-1,-1,-1,-1,-1,-1,-1,-1,-1,-1],"split_conditions":[1.4515E2,-2.0260464E-2,9.36993E-1,1.2085E2,7.9165E1,1.1628298E1,3.11E2,1.0131685E0,9.7375E-1,3.117E2,1.1687159E1,-1.18254265E-2,-1.0277472E-3,1.13467655E1,6.5E1,2.992879E2,5.54E2,3.0997772E2,3.2696118E2,2.4595E2,5.75E1,7.7169472E-3,3.361111E1,3.5E1,7.23E1,-2.6441622E-4,9.6858907E-1,5.0212457E2,1.1472222E2,3.5485835E-4,-9.111579E-3,4.2773993E-3,1.2374253E-3,-9.18777E-3,-3.88351E-3,-8.875819E-4,-2.9608267E-3,1.0778803E-3,-3.2494176E-4,2.3682418E-3,6.678684E-3,-1.9801748E-3,2.3831124E-3,-4.6673515E-3,-2.1767148E-3,2.6360012E-5,4.0353853E-3,1.6155698E-4,-7.977667E-3],"split_indices":[2,0,3,0,0,1,2,3,3,2,1,0,0,1,0,2,2,2,2,2,0,0,0,0,0,0,3,2,0,0,0,0,0,0,0,0,0,0,0,0,0,0,0,0,0,0,0,0,0],"split_type":[0,0,0,0,0,0,0,0,0,0,0,0,0,0,0,0,0,0,0,0,0,0,0,0,0,0,0,0,0,0,0,0,0,0,0,0,0,0,0,0,0,0,0,0,0,0,0,0,0],"sum_hessian":[6.55E2,4E0,6.51E2,3.03E2,3.48E2,2.98E2,5E0,2.93E2,5.5E1,4.4E1,2.54E2,4E0,1E0,2.82E2,1.1E1,3.2E1,2.3E1,3E1,1.4E1,3.4E1,2.2E2,2E0,2.8E2,9E0,2E0,1E0,3.1E1,9E0,1.4E1,2.7E1,3E0,8E0,6E0,7E0,2.7E1,1.26E2,9.4E1,1.12E2,1.68E2,3E0,6E0,1E0,1E0,2.7E1,4E0,7E0,2E0,1.2E1,2E0],"tree_param":{"num_deleted":"0","num_feature":"8","num_nodes":"49","size_leaf_vector":"0"}},{"base_weights":[-3.1405028E-3,-4.7701046E-2,-2.8610227E-3,-2.2216293E-3,-1.7508471E-2,-4.750187E-3,6.609146E-4,-3.525431E-2,-1.2889442E-2,-1.8595064E-3,-6.6013206E-3,7.7943373E-3,-6.022642E-4,-1.1140173E-2,-2.0837843E-2,1.401436E-2,-2.3410372E-3,-1.2796658E-2,-5.999589E-3,1.1047766E-2,-4.3720976E-3,-1.2465265E-2,4.3191962E-4,-1.4115107E-2,-6.4562354E-3,4.8419833E-4,1.8363014E-2,-2.8980153E-3,6.3758865E-3,-2.0743256E-2,-8.755916E-3,3.0219979E-3,-6.808629E-3,7.2576054E-3,1.9797407E-2,8.909206E-4,-5.799217E-3,1.7658556E-4,1.9693336E-2,-2.855789E-3,-1.4879064E-2,1.2845211E-3,-7.459044E-3],"categories":[],"categories_nodes":[],"categories_segments":[],"categories_sizes":[],"default_left":[1,0,1,1,1,1,1,0,1,1,1,1,1,1,0,1,1,1,1,1,1,0,1,1,1,0,0,0,0,0,0,0,0,0,0,0,0,0,0,0,0,0,0],"id":14,"left_children":[1,-1,3,5,7,9,11,-1,13,15,17,19,21,23,-1,25,27,29,31,33,35,-1,37,39,41,-1,-1,-1,-1,-1,-1,-1,-1,-1,-1,-1,-1,-1,-1,-1,-1,-1,-1],"loss_changes":[7.983399E-3,0E0,6.0393014E-3,4.543986E-3,1.7587421E-3,1.7642691E-3,2.6358443E-3,0E0,8.765212E-5,1.0341404E-3,6.7626685E-4,1.789938E-3,3.0602464E-3,2.014921E-4,0E0,2.2646069E-4,6.3993473E-4,3.6424678E-4,1.3781572E-3,1.0170075E-3,8.027621E-5,0E0,1.1276844E-3,6.0728053E-5,8.720628E-5,0E0,0E0,0E0,0E0,0E0,0E0,0E0,0E0,0E0,0E0,0E0,0E0,0E0,0E0,0E0,0E0,0E0,0E0],"parents":[2147483647,0,0,2,2,3,3,4,4,5,5,6,6,8,8,9,9,10,10,11,11,12,12,13,13,15,15,16,16,17,17,18,18,19,19,20,20,22,22,23,23,24,24],"right_children":[2,-1,4,6,8,10,12,-1,14,16,18,20,22,24,-1,26,28,30,32,34,36,-1,38,40,42,-1,-1,-1,-1,-1,-1,-1,-1,-1,-1,-1,-1,-1,-1,-1,-1,-1,-1],"split_conditions":[1.4505E2,-1.45488195E-2,1.0472222E2,9.461942E-1,2.568E2,4.25E1,3.429473E2,-1.0752565E-2,5.625E2,1.7255E2,1.7804999E2,9.5475E-1,3.46425E2,3.5725E2,-6.355542E-3,7.988812E-1,3.603827E2,5.5E1,2.01E2,9.5221037E-1,2.5555555E1,-3.8019058E-3,6.46E2,1.5583334E2,1.4388889E2,1.4768049E-4,5.6007192E-3,-8.838947E-4,1.9446454E-3,-6.3266936E-3,-2.6705544E-3,9.2170935E-4,-2.0766319E-3,2.2135698E-3,6.0382094E-3,2.717308E-4,-1.7687613E-3,5.3858595E-5,6.0064676E-3,-8.7101565E-4,-4.5381146E-3,3.9177894E-4,-2.2750085E-3],"split_indices":[2,0,0,3,2,0,2,0,2,2,2,3,2,2,0,3,2,0,2,3,0,0,2,0,0,0,0,0,0,0,0,0,0,0,0,0,0,0,0,0,0,0,0],"split_type":[0,0,0,0,0,0,0,0,0,0,0,0,0,0,0,0,0,0,0,0,0,0,0,0,0,0,0,0,0,0,0,0,0,0,0,0,0,0,0,0,0,0,0],"sum_hessian":[6.51E2,3E0,6.48E2,6.22E2,2.6E1,3.31E2,2.91E2,4E0,2.2E1,1.3E2,2.01E2,4.3E1,2.48E2,2E1,2E0,3E0,1.27E2,1.6E1,1.85E2,3.4E1,9E0,1.9E1,2.29E2,1.1E1,9E0,1E0,2E0,1.2E2,7E0,4E0,1.2E1,1.5E1,1.7E2,2.5E1,9E0,2E0,7E0,2.27E2,2E0,1E0,1E1,1E0,8E0],"tree_param":{"num_deleted":"0","num_feature":"8","num_nodes":"43","size_leaf_vector":"0"}},{"base_weights":[-1.5882321E-3,-3.858032E-2,-1.2972045E-3,3.9034286E-3,-2.0992858E-3,2.886303E-3,1.3459614E-2,-1.3992264E-2,-1.7662712E-3,1.053924E-2,1.8755603E-3,1.7295554E-2,-6.695986E-3,3.6414366E-3,-1.698525E-2,-2.8548897E-3,3.5202305E-3,1.2724136E-2,1.9280711E-3,-2.7975615E-3,3.1772458E-3,5.0517917E-3,4.1036308E-4,-2.8961107E-2,-1.04963835E-2,-2.0209595E-3,-7.509895E-3,4.520549E-3,-1.4989488E-2,1.8983077E-4,-1.1807196E-2,7.683378E-3,1.0160246E-3,-1.4018987E-2,-4.169983E-3,2.0120928E-2,-2.1900008E-3,-1.3593511E-2,-1.7246393E-3,-3.7793368E-3,5.9899944E-3,-1.9281175E-2,1.0886304E-3],"categories":[],"categories_nodes":[],"categories_segments":[],"categories_sizes":[],"default_left":[1,0,1,1,1,1,1,1,1,1,1,0,0,1,1,1,1,0,0,1,1,0,0,0,1,1,1,1,1,0,0,0,0,0,0,0,0,0,0,0,0,0,0],"id":15,"left_children":[1,-1,3,5,7,9,11,13,15,17,19,-1,-1,21,23,25,27,-1,-1,29,31,-1,-1,-1,33,35,37,39,41,-1,-1,-1,-1,-1,-1,-1,-1,-1,-1,-1,-1,-1,-1],"loss_changes":[6.8938425E-3,0E0,2.6820172E-3,7.9705776E-4,2.1773442E-3,5.9131E-4,7.343361E-4,8.5351244E-4,3.1292513E-3,1.447975E-4,4.4077696E-4,0E0,0E0,1.1597818E-5,7.062396E-4,1.7317005E-3,1.789713E-3,0E0,0E0,4.3288636E-4,5.375634E-4,0E0,0E0,0E0,1.6439508E-4,1.4775925E-3,2.3698348E-3,1.1081027E-3,3.660014E-4,0E0,0E0,0E0,0E0,0E0,0E0,0E0,0E0,0E0,0E0,0E0,0E0,0E0,0E0],"parents":[2147483647,0,0,2,2,3,3,4,4,5,5,6,6,7,7,8,8,9,9,10,10,13,13,14,14,15,15,16,16,19,19,20,20,24,24,25,25,26,26,27,27,28,28],"right_children":[2,-1,4,6,8,10,12,14,16,18,20,-1,-1,22,24,26,28,-1,-1,30,32,-1,-1,-1,34,36,38,40,42,-1,-1,-1,-1,-1,-1,-1,-1,-1,-1,-1,-1,-1,-1],"split_conditions":[1.4505E2,-1.1766998E-2,2.5075E1,1.194384E1,1.7255E2,1.777778E1,1.2236074E1,3.5E1,1.18696E1,1.1741083E1,3.15E2,5.2751442E-3,-2.0422756E-3,1.197099E1,4.5E1,1.1808035E1,1.2085E2,3.8808617E-3,5.880617E-4,3.0897772E2,3.4246344E2,1.5407965E-3,1.2516075E-4,-8.833138E-3,1.1975273E1,1.13467655E1,1.1821764E1,1.0639664E1,1.2160653E1,5.7898385E-5,-3.6011948E-3,2.3434304E-3,3.0988752E-4,-4.2757913E-3,-1.2718448E-3,6.136883E-3,-6.6795025E-4,-4.146021E-3,-5.26015E-4,-1.1526977E-3,1.8269484E-3,-5.8807586E-3,3.3203227E-4],"split_indices":[2,0,0,1,2,0,1,0,1,1,2,0,0,1,0,1,0,0,0,2,2,0,0,0,1,1,1,4,1,0,0,0,0,0,0,0,0,0,0,0,0,0,0],"split_type":[0,0,0,0,0,0,0,0,0,0,0,0,0,0,0,0,0,0,0,0,0,0,0,0,0,0,0,0,0,0,0,0,0,0,0,0,0,0,0,0,0,0,0],"sum_hessian":[6.44E2,4E0,6.4E2,8.5E1,5.55E2,7.8E1,7E0,1.4E1,5.41E2,8E0,7E1,6E0,1E0,2E0,1.2E1,4.49E2,9.2E1,6E0,2E0,1.5E1,5.5E1,1E0,1E0,3E0,9E0,3.82E2,6.7E1,8.8E1,4E0,1.2E1,3E0,1.7E1,3.8E1,5E0,4E0,2E0,3.8E2,3.2E1,3.5E1,1.3E1,7.5E1,3E0,1E0],"tree_param":{"num_deleted":"0","num_feature":"8","num_nodes":"43","size_leaf_vector":"0"}},{"base_weights":[-1.0967621E-3,2.0108428E-3,-2.6333195E-3,2.1133304E-2,1.8182314E-3,-6.9617815E-3,-1.5751449E-3,7.503127E-3,1.2431988E-3,-5.762498E-3,-2.9207017E-2,8.931146E-3,-2.5771053E-3,1.1866498E-2,1.336438E-3,1.6320302E-3,-5.957854E-3,4.936193E-3,-7.723093E-3,1.3278683E-2,-1.0672112E-2,6.13685E-3,-2.9148217E-3,2.162623E-3,1.5235122E-2,7.776266E-3,-3.1795204E-3,1.1352411E-3,1.00632785E-2,-8.904804E-3,3.88663E-3,1.9343972E-2,-3.6165947E-3,-9.398237E-3,-2.5477905E-3,1.4444745E-2,-7.35341E-3,-1.787724E-2,2.492095E-3,-2.5978047E-4,1.25767775E-2,-1.5186485E-2,-2.3987573E-3,5.815783E-3,-9.936914E-4,1.7312203E-2,3.477782E-4,-1.2626275E-3,1.1210106E-2,-4.4601797E-3,1.6118884E-3,6.476017E-4,7.0871413E-3,1.4941469E-2,5.83813E-3,-4.92998E-3,-1.38861835E-2,5.739212E-3,9.073317E-5,8.38833E-3,2.3851624E-2,-1.0776788E-2,4.2669177E-3,-7.81503E-3,-1.3424917E-2,-5.5416087E-3,9.315975E-3,9.753216E-3,2.260865E-2,-4.634686E-3,-2.074653E-2,-4.715249E-4,4.2096674E-3,6.579824E-3,-2.4963517E-3,1.5325822E-2,-5.842224E-4,-1.3416705E-3,-4.8620217E-3],"categories":[],"categories_nodes":[],"categories_segments":[],"categories_sizes":[],"default_left":[1,1,1,0,1,1,1,1,1,1,0,1,1,1,1,1,1,1,1,1,1,1,1,1,1,1,1,1,1,1,1,1,1,1,1,1,0,1,1,1,1,0,1,0,0,0,0,0,0,0,0,0,0,0,0,0,0,0,0,0,0,0,0,0,0,0,0,0,0,0,0,0,0,0,0,0,0,0,0],"id":16,"left_children":[1,3,5,-1,7,9,11,13,15,17,-1,19,21,23,25,27,29,31,33,35,37,39,41,43,45,47,49,51,53,55,57,59,61,63,65,67,-1,69,71,73,75,-1,77,-1,-1,-1,-1,-1,-1,-1,-1,-1,-1,-1,-1,-1,-1,-1,-1,-1,-1,-1,-1,-1,-1,-1,-1,-1,-1,-1,-1,-1,-1,-1,-1,-1,-1,-1,-1],"loss_changes":[3.0278785E-3,7.3504733E-4,1.9310678E-3,0E0,6.738934E-4,2.0459983E-3,3.6232122E-3,4.9538456E-4,5.4452254E-4,1.716187E-3,0E0,2.6984878E-3,9.389983E-4,3.2662798E-4,2.8646275E-4,7.508922E-4,3.2472168E-4,1.671906E-3,5.655731E-4,7.076757E-4,6.1365054E-4,4.975932E-4,1.8761286E-3,5.190118E-5,2.413569E-4,1.3830666E-4,4.400629E-5,4.975223E-4,1.1888065E-4,8.9942245E-5,2.0575895E-5,4.684576E-5,5.5401097E-4,2.2021262E-4,6.909487E-4,6.9872197E-4,0E0,5.5833254E-5,1.7255657E-5,1.235064E-4,2.2603478E-4,0E0,7.5120677E-4,0E0,0E0,0E0,0E0,0E0,0E0,0E0,0E0,0E0,0E0,0E0,0E0,0E0,0E0,0E0,0E0,0E0,0E0,0E0,0E0,0E0,0E0,0E0,0E0,0E0,0E0,0E0,0E0,0E0,0E0,0E0,0E0,0E0,0E0,0E0,0E0],"parents":[2147483647,0,0,1,1,2,2,4,4,5,5,6,6,7,7,8,8,9,9,11,11,12,12,13,13,14,14,15,15,16,16,17,17,18,18,19,19,20,20,21,21,22,22,23,23,24,24,25,25,26,26,27,27,28,28,29,29,30,30,31,31,32,32,33,33,34,34,35,35,37,37,38,38,39,39,40,40,42,42],"right_children":[2,4,6,-1,8,10,12,14,16,18,-1,20,22,24,26,28,30,32,34,36,38,40,42,44,46,48,50,52,54,56,58,60,62,64,66,68,-1,70,72,74,76,-1,78,-1,-1,-1,-1,-1,-1,-1,-1,-1,-1,-1,-1,-1,-1,-1,-1,-1,-1,-1,-1,-1,-1,-1,-1,-1,-1,-1,-1,-1,-1,-1,-1,-1,-1,-1,-1],"split_conditions":[3.779E1,1.1328665E1,1.5200746E0,6.445658E-3,1.5296896E0,8.5524845E-1,1.5563722E0,3.25E1,1.1932423E1,1.1759367E1,-8.9081405E-3,1.1825923E1,8.615E-1,2.45E1,1.1813971E1,9.886132E-1,1.2112501E1,5.222222E1,1.1940611E1,8.6666664E1,1.1880392E1,8.588056E-1,1.590675E0,1.1749371E1,1.2021175E1,3.638889E1,8.5087466E-1,1.180941E1,2.1E1,3.25E1,1.2236074E1,1.1687351E1,1.1734732E1,1.4965868E0,8.222444E-1,6.777778E1,-2.24279E-3,6.5E1,5.5E1,4.5E1,7.055556E1,-4.631878E-3,6.972E1,1.7738139E-3,-3.0307588E-4,5.280222E-3,1.0607235E-4,-3.8510142E-4,3.4190826E-3,-1.3603548E-3,4.91626E-4,1.9751852E-4,2.161578E-3,4.557148E-3,1.7806297E-3,-1.5036439E-3,-4.2352863E-3,1.7504597E-3,2.7673617E-5,2.5584407E-3,7.2747455E-3,-3.2869205E-3,1.3014099E-3,-2.3835844E-3,-4.0945997E-3,-1.6901906E-3,2.8413725E-3,2.974731E-3,6.8956385E-3,-1.4135792E-3,-6.3276915E-3,-1.438151E-4,1.2839485E-3,2.0068462E-3,-7.613873E-4,4.674376E-3,-1.7818782E-4,-4.0920952E-4,-1.4829166E-3],"split_indices":[0,1,7,0,7,3,7,0,1,1,0,1,3,0,1,3,1,0,1,0,1,3,7,1,1,0,3,1,0,0,1,1,1,7,3,0,0,0,0,0,0,0,0,0,0,0,0,0,0,0,0,0,0,0,0,0,0,0,0,0,0,0,0,0,0,0,0,0,0,0,0,0,0,0,0,0,0,0,0],"split_type":[0,0,0,0,0,0,0,0,0,0,0,0,0,0,0,0,0,0,0,0,0,0,0,0,0,0,0,0,0,0,0,0,0,0,0,0,0,0,0,0,0,0,0,0,0,0,0,0,0,0,0,0,0,0,0,0,0,0,0,0,0,0,0,0,0,0,0,0,0,0,0,0,0,0,0,0,0,0,0],"sum_hessian":[6.32E2,2.09E2,4.23E2,1E0,2.08E2,8.2E1,3.41E2,1.8E1,1.9E2,7.9E1,3E0,2.9E1,3.12E2,1E1,8E0,1.81E2,9E0,1.2E1,6.7E1,2.4E1,5E0,1.1E1,3.01E2,3E0,7E0,3E0,5E0,1.72E2,9E0,7E0,2E0,4E0,8E0,5E1,1.7E1,2.3E1,1E0,3E0,2E0,6E0,5E0,1.1E1,2.9E2,1E0,2E0,6E0,1E0,1E0,2E0,4E0,1E0,1.6E2,1.2E1,3E0,6E0,5E0,2E0,1E0,1E0,2E0,2E0,4E0,4E0,3.8E1,1.2E1,1.4E1,3E0,1.6E1,7E0,1E0,2E0,1E0,1E0,1E0,5E0,4E0,1E0,2.04E2,8.6E1],"tree_param":{"num_deleted":"0","num_feature":"8","num_nodes":"79","size_leaf_vector":"0"}},{"base_weights":[-9.718117E-4,1.5228594E-4,-4.3450445E-3,-2.7101745E-5,1.0896511E-2,-3.3608574E-2,-3.769197E-3,-1.0995652E-4,1.9830167E-2,2.761205E-3,1.314808E-2,-7.912766E-3,-2.9432562E-3,1.1669104E-2,-1.8380815E-4,4.6159327E-3,-4.7412515E-4,-5.9186067E-3,-1.7400995E-2,2.1992624E-3,-3.963917E-3,-4.7581494E-3,2.6793548E-5,-7.2717625E-3,5.526354E-3,-3.0312703E-3,2.1635434E-2,-8.228298E-3,-2.7215185E-3,-1.0490703E-2,1.5684163E-2,1.0540222E-2,-2.319861E-4,-9.5196515E-3,-4.7925413E-3,4.0085614E-4,7.888675E-3,2.1877012E-3,-5.608311E-3,-6.0263528E-3,-2.2367114E-2,7.239768E-4,-5.548943E-3],"categories":[],"categories_nodes":[],"categories_segments":[],"categories_sizes":[],"default_left":[1,1,1,1,1,0,1,1,0,1,0,1,1,0,1,0,0,1,0,1,1,1,1,1,1,1,0,1,1,0,0,0,0,0,0,0,0,0,0,0,0,0,0],"id":17,"left_children":[1,3,5,7,9,-1,11,13,-1,15,-1,17,19,-1,21,-1,-1,23,-1,25,27,29,31,33,35,37,-1,39,41,-1,-1,-1,-1,-1,-1,-1,-1,-1,-1,-1,-1,-1,-1],"loss_changes":[2.457776E-3,9.389302E-4,2.6032396E-3,7.919098E-4,1.10233144E-4,0E0,5.242855E-4,4.1882833E-4,0E0,2.0190497E-5,0E0,3.8895744E-4,7.173013E-4,0E0,4.5965213E-4,0E0,0E0,3.963831E-4,0E0,2.403798E-3,5.762873E-4,2.6254577E-3,1.2457874E-3,7.140997E-5,3.316199E-5,2.6780984E-4,0E0,6.435305E-4,8.7104435E-4,0E0,0E0,0E0,0E0,0E0,0E0,0E0,0E0,0E0,0E0,0E0,0E0,0E0,0E0],"parents":[2147483647,0,0,1,1,2,2,3,3,4,4,6,6,7,7,9,9,11,11,12,12,14,14,17,17,19,19,20,20,21,21,22,22,23,23,24,24,25,25,27,27,28,28],"right_children":[2,4,6,8,10,-1,12,14,-1,16,-1,18,20,-1,22,-1,-1,24,-1,26,28,30,32,34,36,38,-1,40,42,-1,-1,-1,-1,-1,-1,-1,-1,-1,-1,-1,-1,-1,-1],"split_conditions":[6.972E1,5.98E2,1.4515E2,6.897E1,3.5E1,-1.0250616E-2,8.434979E-1,1.671E2,6.048201E-3,2.5E1,4.010164E-3,1.2085E2,8.6111474E-1,3.5590767E-3,1.9064E2,1.4078595E-3,-1.4460817E-4,8.25E1,-5.3073037E-3,8.5830307E-1,3.15E2,5.5E1,2.045E2,1.826E2,1.028E2,2.153E2,6.5988074E-3,3.1005E2,3.6073715E2,-3.1996646E-3,4.78367E-3,3.2147677E-3,-7.075576E-5,-2.9034938E-3,-1.4617251E-3,1.2226113E-4,2.4060458E-3,6.6724885E-4,-1.7105349E-3,-1.8380376E-3,-6.82197E-3,2.2081293E-4,-1.6924276E-3],"split_indices":[0,2,2,0,0,0,3,2,0,0,0,0,3,0,2,0,0,0,0,3,2,0,2,2,0,2,0,2,2,0,0,0,0,0,0,0,0,0,0,0,0,0,0],"split_type":[0,0,0,0,0,0,0,0,0,0,0,0,0,0,0,0,0,0,0,0,0,0,0,0,0,0,0,0,0,0,0,0,0,0,0,0,0,0,0,0,0,0,0],"sum_hessian":[6.47E2,4.86E2,1.61E2,4.79E2,7E0,2E0,1.59E2,4.78E2,1E0,2E0,5E0,2.5E1,1.34E2,2E0,4.76E2,1E0,1E0,2.2E1,3E0,2.2E1,1.12E2,2E1,4.56E2,2E1,2E0,1.8E1,4E0,2.4E1,8.8E1,1.6E1,4E0,1E1,4.46E2,9E0,1.1E1,1E0,1E0,6E0,1.2E1,2.2E1,2E0,4E1,4.8E1],"tree_param":{"num_deleted":"0","num_feature":"8","num_nodes":"43","size_leaf_vector":"0"}},{"base_weights":[-6.861472E-4,-1.8551646E-2,-3.392567E-4,-2.3179587E-2,-7.4366094E-3,-2.4994975E-3,8.890096E-4,-1.6284749E-2,-1.1533871E-3,-3.8464724E-3,2.8256108E-3,8.800746E-3,3.0926394E-4,9.3685585E-4,-3.712058E-3,-6.732707E-3,-2.3472495E-3,3.7919115E-3,-1.228867E-2,1.2752617E-2,1.8932427E-3,-4.7288768E-4,4.5248535E-3,-1.4099628E-3,2.8152466E-3,5.791022E-4,-7.847303E-3,1.3018309E-3,-6.8313447E-3,1.442299E-2,2.6622475E-3,1.2918472E-3,1.6179634E-2,6.244161E-3,-1.1790593E-2,4.5161434E-3,-9.788843E-4,1.2392887E-2,1.9764686E-3,2.8045364E-3,-1.0010377E-3,-1.1150744E-2,-5.9776013E-3,2.9553585E-3,-5.169049E-3,-1.1243771E-2,-2.0024823E-3,1.8731177E-2,7.492155E-4,1.3849048E-2,1.4146303E-3,9.736948E-3,-1.6244277E-2,1.8696863E-2,5.8416557E-3,-1.1194826E-3,5.4626227E-3,6.5955456E-4,-2.6568612E-3,4.5627016E-3,1.7695189E-2,1.0686874E-3,1.4329175E-2],"categories":[],"categories_nodes":[],"categories_segments":[],"categories_sizes":[],"default_left":[1,1,1,0,1,1,1,0,1,1,1,1,1,1,0,1,1,1,0,1,1,1,1,0,0,1,1,1,1,1,1,1,1,0,0,1,1,1,1,0,0,0,0,0,0,0,0,0,0,0,0,0,0,0,0,0,0,0,0,0,0,0,0],"id":18,"left_children":[1,3,5,-1,7,9,11,-1,13,15,17,19,21,23,-1,25,27,29,-1,31,33,35,37,-1,-1,39,41,43,45,47,49,51,53,-1,-1,55,57,59,61,-1,-1,-1,-1,-1,-1,-1,-1,-1,-1,-1,-1,-1,-1,-1,-1,-1,-1,-1,-1,-1,-1,-1,-1],"loss_changes":[3.904248E-3,4.448993E-4,1.6472996E-3,0E0,2.5919155E-4,1.6247458E-3,1.8136493E-3,0E0,2.4870638E-5,7.6307636E-4,7.184248E-4,7.128902E-4,1.2221149E-3,1.7194121E-5,0E0,5.016767E-4,1.972432E-3,4.9002253E-4,0E0,6.467949E-4,7.2853215E-4,7.945682E-4,1.138451E-3,0E0,0E0,3.445592E-5,2.6069698E-4,7.321615E-4,1.1280626E-3,2.2160297E-4,5.5263937E-4,8.9864136E-4,2.2907904E-4,0E0,0E0,1.6080146E-4,7.852922E-4,5.005142E-4,4.892965E-4,0E0,0E0,0E0,0E0,0E0,0E0,0E0,0E0,0E0,0E0,0E0,0E0,0E0,0E0,0E0,0E0,0E0,0E0,0E0,0E0,0E0,0E0,0E0,0E0],"parents":[2147483647,0,0,1,1,2,2,4,4,5,5,6,6,8,8,9,9,10,10,11,11,12,12,13,13,15,15,16,16,17,17,19,19,20,20,21,21,22,22,25,25,26,26,27,27,28,28,29,29,30,30,31,31,32,32,35,35,36,36,37,37,38,38],"right_children":[2,4,6,-1,8,10,12,-1,14,16,18,20,22,24,-1,26,28,30,-1,32,34,36,38,-1,-1,40,42,44,46,48,50,52,54,-1,-1,56,58,60,62,-1,-1,-1,-1,-1,-1,-1,-1,-1,-1,-1,-1,-1,-1,-1,-1,-1,-1,-1,-1,-1,-1,-1,-1],"split_conditions":[1.3541309E0,1.1975273E1,9.219071E-1,-7.069774E-3,1.650515E0,1.187532E1,9.350592E-1,-4.9668485E-3,1.8116246E0,1.1750225E1,2.0822458E0,1.1628786E1,2.4601068E0,1.7385607E0,-1.1321778E-3,8.563471E-1,1.759257E0,8.0538476E-1,-3.7480444E-3,1.4926383E0,1.759257E0,1.1440804E1,1.1691984E1,-4.3003866E-4,8.5865025E-4,1.7385607E0,8.7124157E-1,1.1843077E1,1.5380569E0,1.8406206E0,1.188311E1,9.3269694E-1,1.8308537E0,1.9044692E-3,-3.596131E-3,1.4008162E0,1.6712114E0,1.1577369E1,1.2242685E1,8.5538364E-4,-3.053165E-4,-3.400977E-3,-1.8231685E-3,9.0138434E-4,-1.57656E-3,-3.4293502E-3,-6.107571E-4,5.7130093E-3,2.2851073E-4,4.2239595E-3,4.3146225E-4,2.969769E-3,-4.954505E-3,5.7025435E-3,1.7817051E-3,-3.4144218E-4,1.6661E-3,2.0116415E-4,-8.1034267E-4,1.391624E-3,5.3970325E-3,3.2594966E-4,4.370399E-3],"split_indices":[7,1,3,0,6,1,3,0,6,1,6,1,7,6,0,3,6,3,0,6,6,1,1,0,0,6,3,1,7,6,1,3,6,0,0,6,6,1,1,0,0,0,0,0,0,0,0,0,0,0,0,0,0,0,0,0,0,0,0,0,0,0,0],"split_type":[0,0,0,0,0,0,0,0,0,0,0,0,0,0,0,0,0,0,0,0,0,0,0,0,0,0,0,0,0,0,0,0,0,0,0,0,0,0,0,0,0,0,0,0,0,0,0,0,0,0,0,0,0,0,0,0,0,0,0,0,0,0,0],"sum_hessian":[6.3E2,1.1E1,6.19E2,7E0,4E0,2.24E2,3.95E2,1E0,3E0,1.79E2,4.5E1,2.6E1,3.69E2,2E0,1E0,6E1,1.19E2,4.3E1,2E0,1.6E1,1E1,3.12E2,5.7E1,1E0,1E0,8E0,5.2E1,6.6E1,5.3E1,3E0,4E1,4E0,1.2E1,8E0,2E0,2.8E1,2.84E2,1.3E1,4.4E1,3E0,5E0,1.7E1,3.5E1,5.3E1,1.3E1,2.7E1,2.6E1,2E0,1E0,3E0,3.7E1,3E0,1E0,9E0,3E0,4E0,2.4E1,1.44E2,1.4E2,6E0,7E0,4.2E1,2E0],"tree_param":{"num_deleted":"0","num_feature":"8","num_nodes":"63","size_leaf_vector":"0"}},{"base_weights":[5.978336E-5,-2.2053972E-2,1.9412262E-4,-4.7769342E-4,1.8637492E-3,-8.185801E-4,3.5337259E-3,1.2494807E-2,6.0207327E-4,4.6976507E-5,-4.4256253E-3,6.3248044E-3,-4.6346667E-3,8.740191E-4,1.7412715E-2,-1.3369049E-2,1.4661052E-3,2.7637847E-3,-6.763716E-4,-3.4270834E-3,-9.615579E-3,1.3631095E-2,2.1465041E-3,-1.3202345E-3,-5.2982457E-3,6.5882034E-3,-5.1646336E-4,1.7482811E-3,2.621461E-2,2.5085302E-4,-2.8208054E-3,-1.05903065E-2,-2.6154222E-3,1.7885432E-2,7.813965E-3,-2.4602995E-3,7.5385417E-3,2.6754434E-3,2.001532E-2,-7.35612E-3,1.5185607E-3],"categories":[],"categories_nodes":[],"categories_segments":[],"categories_sizes":[],"default_left":[1,0,1,1,1,1,1,1,1,1,1,1,1,0,0,0,1,1,1,1,0,1,1,0,0,1,1,0,0,0,0,0,0,0,0,0,0,0,0,0,0],"id":19,"left_children":[1,-1,3,5,7,9,11,13,15,17,19,21,23,-1,-1,-1,25,27,29,31,-1,33,35,-1,-1,37,39,-1,-1,-1,-1,-1,-1,-1,-1,-1,-1,-1,-1,-1,-1],"loss_changes":[1.967944E-3,0E0,7.38957E-4,6.4558914E-4,2.527525E-3,1.3552001E-3,8.728626E-4,1.12778E-3,2.0717548E-3,6.9165387E-4,4.023671E-4,8.255213E-4,1.49989355E-5,0E0,0E0,0E0,1.6383433E-3,1.7164352E-3,5.53475E-4,3.9091788E-4,0E0,1.0772422E-4,4.9050816E-4,0E0,0E0,2.310619E-3,1.639678E-3,0E0,0E0,0E0,0E0,0E0,0E0,0E0,0E0,0E0,0E0,0E0,0E0,0E0,0E0],"parents":[2147483647,0,0,2,2,3,3,4,4,5,5,6,6,7,7,8,8,9,9,10,10,11,11,12,12,16,16,17,17,18,18,19,19,21,21,22,22,25,25,26,26],"right_children":[2,-1,4,6,8,10,12,14,16,18,20,22,24,-1,-1,-1,26,28,30,32,-1,34,36,-1,-1,38,40,-1,-1,-1,-1,-1,-1,-1,-1,-1,-1,-1,-1,-1,-1],"split_conditions":[1.4505E2,-6.7264615E-3,3.6383167E2,1.1939123E1,3.6647882E2,1.1808956E1,1.2003834E1,1.1486841E1,3.6765E2,1.6420758E0,8.613528E-1,1.936E2,1.2012884E1,2.6657584E-4,5.310878E-3,-4.07756E-3,3.825036E2,2.4837E2,1.16436825E1,1.18169155E1,-2.9327516E-3,1.81E2,1.1974997E1,-4.0267152E-4,-1.6159649E-3,3.7849225E2,9.6875E-1,5.332257E-4,7.995456E-3,7.651017E-5,-8.6034567E-4,-3.2300435E-3,-7.977038E-4,5.4550567E-3,2.3832594E-3,-7.503914E-4,2.2992552E-3,8.160103E-4,6.104673E-3,-2.2436166E-3,4.6316104E-4],"split_indices":[2,0,2,1,2,1,1,1,2,7,3,2,1,0,0,0,2,2,1,1,0,2,1,0,0,2,3,0,0,0,0,0,0,0,0,0,0,0,0,0,0],"split_type":[0,0,0,0,0,0,0,0,0,0,0,0,0,0,0,0,0,0,0,0,0,0,0,0,0,0,0,0,0,0,0,0,0,0,0,0,0,0,0,0,0],"sum_hessian":[6.6E2,3E0,6.57E2,4.69E2,1.88E2,4.33E2,3.6E1,1.9E1,1.69E2,3.5E2,8.3E1,2.7E1,9E0,6E0,1.3E1,9E0,1.6E2,7.3E1,2.77E2,7.1E1,1.2E1,9E0,1.8E1,2E0,7E0,4.4E1,1.16E2,7.1E1,2E0,1.94E2,8.3E1,6E0,6.5E1,4E0,5E0,1E1,8E0,3.5E1,9E0,2.6E1,9E1],"tree_param":{"num_deleted":"0","num_feature":"8","num_nodes":"41","size_leaf_vector":"0"}},{"base_weights":[-7.223044E-4,5.7069893E-4,-2.6438355E-3,-9.071356E-3,9.906502E-4,-4.5358125E-4,-3.999477E-3,9.814233E-3,-1.4184509E-2,1.1656927E-2,5.0161575E-4,-2.1609284E-3,1.1007402E-2,-1.7595934E-2,-2.6591327E-3,-2.3619153E-2,-8.992201E-3,1.2641429E-2,3.1769425E-3,4.3496002E-5,5.4020477E-3,-4.8737954E-3,2.4259994E-3,2.1720858E-2,3.832437E-3,-2.1763822E-2,-8.411446E-3,-6.5678935E-3,-1.7499254E-3,1.3539013E-2,4.864186E-4,-8.6749345E-4,5.632907E-3,1.4921733E-3,-3.0511883E-3,8.263526E-3,-2.1929045E-3,-2.3869195E-3,-1.0786373E-2,9.688188E-3,-2.8542877E-4,2.4266142E-2,5.76986E-3,-1.2374833E-3,8.13587E-3,-3.929992E-3,-2.3501802E-2,1.9393992E-3,-1.0869494E-2,-1.7936295E-3,-1.334922E-2,-5.665809E-4,-4.949438E-3,3.3131428E-3,1.4115074E-2,8.5978856E-4,1.2381859E-2,-1.1047574E-3,-5.9676263E-3,5.209858E-3,1.0843569E-2,-7.708639E-3,-5.398579E-4,-4.767387E-3,2.0229138E-2,-7.440945E-3,-1.896242E-2,1.861327E-2,4.4791275E-3,-3.6246518E-3,4.294005E-3,-6.396111E-3,1.6512014E-3,1.5809752E-2,2.2649616E-3,-2.6613642E-2,-9.444187E-3,-8.573501E-3,5.1855347E-3,1.3123751E-3,-1.4946617E-2,-1.8131677E-3,2.6473445E-3,-2.7816826E-2,-2.4977175E-3],"categories":[],"categories_nodes":[],"categories_segments":[],"categories_sizes":[],"default_left":[1,1,1,1,1,1,1,0,1,1,1,1,1,1,1,0,0,1,1,1,1,1,1,1,1,1,1,1,1,1,0,0,0,1,1,1,1,1,1,1,1,0,0,1,1,0,1,0,0,1,1,1,1,0,0,0,0,0,0,0,0,0,0,0,0,0,0,0,0,0,0,0,0,0,0,0,0,0,0,0,0,0,0,0,0],"id":20,"left_children":[1,3,5,7,9,11,13,-1,15,17,19,21,23,25,27,-1,-1,29,31,33,35,37,39,41,43,45,47,49,51,53,-1,-1,-1,55,57,59,61,63,65,67,69,-1,-1,71,73,-1,75,-1,-1,77,79,81,83,-1,-1,-1,-1,-1,-1,-1,-1,-1,-1,-1,-1,-1,-1,-1,-1,-1,-1,-1,-1,-1,-1,-1,-1,-1,-1,-1,-1,-1,-1,-1,-1],"loss_changes":[1.58168E-3,1.5517292E-3,7.583009E-4,1.6842487E-3,1.9032733E-3,1.961006E-3,2.8325908E-3,0E0,4.244505E-4,9.341608E-5,7.877546E-4,1.0944279E-3,9.16049E-4,3.5285344E-4,5.038184E-4,0E0,0E0,1.4615618E-4,3.4685487E-5,1.4481429E-3,6.7010487E-4,7.8296545E-4,6.5256516E-4,6.2986976E-5,2.0643059E-4,1.8659187E-4,1.7373759E-4,8.5020415E-4,4.4774465E-4,2.9814197E-5,0E0,0E0,0E0,1.5043778E-3,5.7810167E-4,1.1683558E-4,7.789832E-5,2.2499121E-3,2.9653974E-4,3.3505046E-4,3.9785806E-4,0E0,0E0,8.5069514E-5,1.8945479E-4,0E0,9.8615885E-5,0E0,0E0,8.488614E-4,2.7724006E-4,3.5736652E-4,1.7245836E-3,0E0,0E0,0E0,0E0,0E0,0E0,0E0,0E0,0E0,0E0,0E0,0E0,0E0,0E0,0E0,0E0,0E0,0E0,0E0,0E0,0E0,0E0,0E0,0E0,0E0,0E0,0E0,0E0,0E0,0E0,0E0,0E0],"parents":[2147483647,0,0,1,1,2,2,3,3,4,4,5,5,6,6,8,8,9,9,10,10,11,11,12,12,13,13,14,14,17,17,18,18,19,19,20,20,21,21,22,22,23,23,24,24,25,25,26,26,27,27,28,28,29,29,33,33,34,34,35,35,36,36,37,37,38,38,39,39,40,40,43,43,44,44,46,46,49,49,50,50,51,51,52,52],"right_children":[2,4,6,8,10,12,14,-1,16,18,20,22,24,26,28,-1,-1,30,32,34,36,38,40,42,44,46,48,50,52,54,-1,-1,-1,56,58,60,62,64,66,68,70,-1,-1,72,74,-1,76,-1,-1,78,80,82,84,-1,-1,-1,-1,-1,-1,-1,-1,-1,-1,-1,-1,-1,-1,-1,-1,-1,-1,-1,-1,-1,-1,-1,-1,-1,-1,-1,-1,-1,-1,-1,-1],"split_conditions":[5.75E1,8.263843E-1,8.880908E-1,3.5E1,1.4965868E0,8.7210786E-1,9.31067E-1,2.993341E-3,1.1840614E1,1.1926718E1,2.4722552E0,1.187023E1,6.777778E1,1.1773218E1,9.427991E-1,-7.2038416E-3,-2.7426213E-3,5.442222E1,4.6111107E1,9.5254135E-1,4.6944443E1,1.1825923E1,6.5E1,8.8082635E-1,7.055556E1,8.940643E-1,6.5E1,1.955957E0,2.2931113E0,2.666667E1,1.4835768E-4,-2.645855E-4,1.7180367E-3,9.5109475E-1,1.154915E1,3.638889E1,4.9394447E1,1.1822111E1,8.6666664E1,8.0538476E-1,8.4313095E-1,7.4011735E-3,1.7598073E-3,1.1530564E1,1.1544905E1,-1.1986477E-3,1.8913958E0,5.915168E-4,-3.3151957E-3,1.1552059E1,1.1510677E1,9.6686035E-1,2.3022525E0,1.0105086E-3,4.3050977E-3,2.6223552E-4,3.7764672E-3,-3.3695102E-4,-1.8201261E-3,1.5890067E-3,3.3072887E-3,-2.351135E-3,-1.6465667E-4,-1.4540531E-3,6.1698873E-3,-2.2694883E-3,-5.7835383E-3,5.677047E-3,1.3661339E-3,-1.1055188E-3,1.3096717E-3,-1.9508139E-3,5.0361647E-4,4.8219743E-3,6.908133E-4,-8.117161E-3,-2.880477E-3,-2.614918E-3,1.5815882E-3,4.002744E-4,-4.5587183E-3,-5.5301614E-4,8.074401E-4,-8.484133E-3,-7.618039E-4],"split_indices":[0,3,3,0,7,3,3,0,1,1,7,1,0,1,3,0,0,0,0,3,0,1,0,3,0,3,0,7,7,0,0,0,0,3,1,0,0,1,0,3,3,0,0,1,1,0,7,0,0,1,1,3,7,0,0,0,0,0,0,0,0,0,0,0,0,0,0,0,0,0,0,0,0,0,0,0,0,0,0,0,0,0,0,0,0],"split_type":[0,0,0,0,0,0,0,0,0,0,0,0,0,0,0,0,0,0,0,0,0,0,0,0,0,0,0,0,0,0,0,0,0,0,0,0,0,0,0,0,0,0,0,0,0,0,0,0,0,0,0,0,0,0,0,0,0,0,0,0,0,0,0,0,0,0,0,0,0,0,0,0,0,0,0,0,0,0,0,0,0,0,0,0,0],"sum_hessian":[6.35E2,3.8E2,2.55E2,1.5E1,3.65E2,9.8E1,1.57E2,3E0,1.2E1,1.5E1,3.5E2,8.6E1,1.2E1,1.3E1,1.44E2,3E0,9E0,1.3E1,2E0,3.21E2,2.9E1,5.4E1,3.2E1,4E0,8E0,8E0,5E0,2.6E1,1.18E2,1.2E1,1E0,1E0,1E0,2.19E2,1.02E2,2.1E1,8E0,3.9E1,1.5E1,8E0,2.4E1,3E0,1E0,4E0,4E0,1E0,7E0,1E0,4E0,1.6E1,1E1,8.7E1,3.1E1,1E0,1.1E1,2.08E2,1.1E1,6.2E1,4E1,1.1E1,1E1,1E0,7E0,3.6E1,3E0,1.2E1,3E0,2E0,6E0,1.4E1,1E1,1E0,3E0,1E0,3E0,5E0,2E0,8E0,8E0,1E0,9E0,6.3E1,2.4E1,2E0,2.9E1],"tree_param":{"num_deleted":"0","num_feature":"8","num_nodes":"85","size_leaf_vector":"0"}},{"base_weights":[7.8390076E-5,1.0238284E-2,-6.5731874E-5,4.3989476E-3,1.2424794E-2,-1.2622762E-2,3.3873326E-5,5.186858E-3,1.0176077E-3,-4.6197623E-3,-2.231738E-2,-9.19538E-5,6.022575E-3,-1.8379867E-2,6.0935616E-3,2.4203087E-4,-2.0324585E-3,1.1527486E-2,-2.3210694E-3,1.1734933E-2,-2.5945902E-3,-1.085492E-5,7.0305895E-3,-8.294588E-3,1.1832537E-3,5.5257976E-3,1.4023339E-2,-9.418026E-3,9.819269E-4,-7.849592E-5,1.7243028E-2,-2.7123635E-4,1.5173866E-2,-2.3648143E-4,-1.1087125E-2,3.747475E-3,-3.8794286E-3,8.428335E-3,-1.5909076E-3,1.5441045E-2,4.176259E-3,2.538989E-3,-9.024441E-4],"categories":[],"categories_nodes":[],"categories_segments":[],"categories_sizes":[],"default_left":[1,1,1,1,0,1,1,0,0,1,0,1,1,0,1,1,1,1,1,0,0,1,1,1,1,1,1,0,1,0,0,0,0,0,0,0,0,0,0,0,0,0,0],"id":21,"left_children":[1,3,5,7,-1,9,11,-1,-1,13,-1,15,17,-1,19,21,23,25,27,-1,-1,29,31,33,35,37,39,-1,41,-1,-1,-1,-1,-1,-1,-1,-1,-1,-1,-1,-1,-1,-1],"loss_changes":[9.421945E-4,6.025395E-5,7.946509E-4,5.3785843E-6,0E0,2.8482918E-4,4.7603823E-4,0E0,0E0,7.016647E-4,0E0,4.0166517E-4,6.2385947E-4,0E0,1.7748663E-4,9.0822653E-4,1.8423004E-3,4.2344444E-5,1.4989513E-4,0E0,0E0,5.977262E-4,1.1338708E-3,6.9495756E-4,8.064302E-4,9.603471E-5,5.3155236E-6,0E0,1.6961709E-5,0E0,0E0,0E0,0E0,0E0,0E0,0E0,0E0,0E0,0E0,0E0,0E0,0E0,0E0],"parents":[2147483647,0,0,1,1,2,2,3,3,5,5,6,6,9,9,11,11,12,12,14,14,15,15,16,16,17,17,18,18,21,21,22,22,23,23,24,24,25,25,26,26,28,28],"right_children":[2,4,6,8,-1,10,12,-1,-1,14,-1,16,18,-1,20,22,24,26,28,-1,-1,30,32,34,36,38,40,-1,42,-1,-1,-1,-1,-1,-1,-1,-1,-1,-1,-1,-1,-1,-1],"split_conditions":[1.777778E1,2.43875E2,1.4505E2,2.34225E2,3.7895623E-3,7.5E1,1.0131685E0,1.5819918E-3,3.1037038E-4,5.5E1,-6.806801E-3,3.830115E2,7.48E1,-5.6058597E-3,6.5E1,3.755E2,4.3355E2,3.5E1,7.75E1,3.5791546E-3,-7.9135003E-4,9.7754854E-1,5.5E1,2.8333336E1,5.54E2,2.5E1,6.19E2,-2.8724978E-3,9.5E1,-2.3941257E-5,5.2591236E-3,-8.2727085E-5,4.628029E-3,-7.212684E-5,-3.3815734E-3,1.14298E-3,-1.1832258E-3,2.5706424E-3,-4.8522683E-4,4.709519E-3,1.2737591E-3,7.743917E-4,-2.7524546E-4],"split_indices":[0,2,2,2,0,0,3,0,0,0,0,2,0,0,0,2,2,0,0,0,0,3,0,0,2,0,2,0,0,0,0,0,0,0,0,0,0,0,0,0,0,0,0],"split_type":[0,0,0,0,0,0,0,0,0,0,0,0,0,0,0,0,0,0,0,0,0,0,0,0,0,0,0,0,0,0,0,0,0,0,0,0,0,0,0,0,0,0,0],"sum_hessian":[6.42E2,8E0,6.34E2,3E0,5E0,4E0,6.3E2,2E0,1E0,3E0,1E0,6.18E2,1.2E1,1E0,2E0,5.28E2,9E1,7E0,5E0,1E0,1E0,5.1E2,1.8E1,3E1,6E1,3E0,4E0,1E0,4E0,5.09E2,1E0,1E1,8E0,8E0,2.2E1,4E1,2E1,2E0,1E0,3E0,1E0,2E0,2E0],"tree_param":{"num_deleted":"0","num_feature":"8","num_nodes":"43","size_leaf_vector":"0"}},{"base_weights":[-6.658119E-4,1.263752E-3,-1.2774093E-3,2.6929667E-3,-5.0086747E-3,-1.8039682E-3,1.6037045E-3,2.1723015E-3,2.262192E-2,-3.2393981E-3,-9.026941E-3,-1.5790487E-3,-1.6198048E-2,1.0111891E-2,5.4811075E-4,1.4803439E-3,1.7791256E-2,-8.052607E-3,3.4200802E-4,2.2853414E-5,-1.2047348E-2,-2.0805777E-3,2.4348742E-3,1.0151863E-3,-1.9843733E-2,1.1784809E-2,-7.992685E-4,-6.4118794E-5,1.3426304E-2,7.842955E-3,3.8389652E-4,-5.002089E-3,-1.0615233E-2,2.9486427E-3,-3.1905062E-3,-3.5106316E-3,3.5449117E-3,-1.3444981E-2,-2.5295913E-3,-8.651063E-3,-1.7180797E-3,-1.210997E-3,6.1357906E-3,-1.8530339E-3,-2.387815E-2,3.0536342E-3,-2.7346467E-3,-5.622953E-3,1.0013273E-2,1.46134645E-2,9.255277E-5,-8.596614E-3,1.4579743E-3,-1.9039214E-4,1.2460943E-2,-1.392955E-3,-4.523739E-3,-5.13656E-3,-1.6761458E-2,-1.8551183E-3,1.3928871E-2,7.1023833E-3,-2.8131232E-3,1.0991989E-2,-7.9084636E-4,-2.6814244E-3,7.025975E-3,-1.670016E-3,-1.056803E-2],"categories":[],"categories_nodes":[],"categories_segments":[],"categories_sizes":[],"default_left":[1,1,1,1,1,1,1,1,0,1,1,1,1,1,1,1,0,1,1,1,1,1,1,0,1,0,0,1,0,1,1,1,0,1,1,0,0,0,0,1,1,1,1,0,0,1,1,0,0,0,0,0,0,0,0,0,0,0,0,0,0,0,0,0,0,0,0,0,0],"id":22,"left_children":[1,3,5,7,9,11,13,15,-1,17,19,21,23,25,27,29,-1,31,33,35,37,39,41,-1,43,-1,-1,45,-1,47,49,51,-1,53,55,-1,-1,-1,-1,57,59,61,63,-1,-1,65,67,-1,-1,-1,-1,-1,-1,-1,-1,-1,-1,-1,-1,-1,-1,-1,-1,-1,-1,-1,-1,-1,-1],"loss_changes":[7.297462E-4,1.3492202E-3,7.144018E-4,1.2167685E-3,1.6982201E-4,1.2597139E-3,6.5008434E-4,1.2705813E-3,0E0,3.6475327E-4,2.1894783E-4,7.9420034E-4,3.9666926E-4,1.5544705E-4,5.212319E-4,8.062362E-4,0E0,1.7257698E-5,1.2911133E-4,4.97803E-5,4.580361E-5,8.163805E-4,6.011253E-4,0E0,3.1866296E-4,0E0,0E0,5.412176E-4,0E0,5.5313436E-4,4.1321706E-4,1.5185878E-4,0E0,2.4124802E-4,8.077965E-6,0E0,0E0,0E0,0E0,4.269759E-4,7.377267E-4,3.263188E-4,7.4870966E-4,0E0,0E0,7.022879E-4,2.7423934E-4,0E0,0E0,0E0,0E0,0E0,0E0,0E0,0E0,0E0,0E0,0E0,0E0,0E0,0E0,0E0,0E0,0E0,0E0,0E0,0E0,0E0,0E0],"parents":[2147483647,0,0,1,1,2,2,3,3,4,4,5,5,6,6,7,7,9,9,10,10,11,11,12,12,13,13,14,14,15,15,17,17,18,18,19,19,20,20,21,21,22,22,24,24,27,27,29,29,30,30,31,31,33,33,34,34,39,39,40,40,41,41,42,42,45,45,46,46],"right_children":[2,4,6,8,10,12,14,16,-1,18,20,22,24,26,28,30,-1,32,34,36,38,40,42,-1,44,-1,-1,46,-1,48,50,52,-1,54,56,-1,-1,-1,-1,58,60,62,64,-1,-1,66,68,-1,-1,-1,-1,-1,-1,-1,-1,-1,-1,-1,-1,-1,-1,-1,-1,-1,-1,-1,-1,-1,-1],"split_conditions":[1.1525139E1,7.9165E1,9.7275E-1,7.194E1,9.698428E-1,9.6774995E-1,2.0555555E1,1.1520422E1,6.899686E-3,9.5335E-1,8.5E1,1.1944512E1,2.75E1,1.2003077E1,1.203708E1,9.4495E-1,5.4263333E-3,9.4495E-1,1.14929285E1,1.1421751E1,1.1485151E1,8.263843E-1,5.75E1,3.0963184E-4,1.17405205E1,3.5943668E-3,-2.437769E-4,1.1773718E1,4.0950226E-3,9.0180004E-1,1.1328665E1,9.407E-1,-3.2376463E-3,1.1485408E1,9.6385E-1,-1.0707426E-3,1.0811981E-3,-4.100719E-3,-7.715254E-4,7.5E1,9.6734536E-1,1.1952042E1,7.5E1,-5.651754E-4,-7.282836E-3,1.1599628E1,1.2004372E1,-1.7150007E-3,3.0540484E-3,4.457107E-3,2.8228596E-5,-2.6219673E-3,4.4468217E-4,-5.8069603E-5,3.8005877E-3,-4.2485129E-4,-1.3797405E-3,-1.5666509E-3,-5.1122447E-3,-5.658111E-4,4.2483057E-3,2.166227E-3,-8.580026E-4,3.3525566E-3,-2.4120815E-4,-8.1783446E-4,2.1429223E-3,-5.0935487E-4,-3.2232492E-3],"split_indices":[1,0,3,0,3,3,0,1,0,3,0,1,0,1,1,3,0,3,1,1,1,3,0,0,1,0,0,1,0,3,1,3,0,1,3,0,0,0,0,0,3,1,0,0,0,1,1,0,0,0,0,0,0,0,0,0,0,0,0,0,0,0,0,0,0,0,0,0,0],"split_type":[0,0,0,0,0,0,0,0,0,0,0,0,0,0,0,0,0,0,0,0,0,0,0,0,0,0,0,0,0,0,0,0,0,0,0,0,0,0,0,0,0,0,0,0,0,0,0,0,0,0,0,0,0,0,0,0,0,0,0,0,0,0,0,0,0,0,0,0,0],"sum_hessian":[6.16E2,1.48E2,4.68E2,1.21E2,2.7E1,3.96E2,7.2E1,1.19E2,2E0,2E1,7E0,3.91E2,5E0,7E0,6.5E1,1.15E2,4E0,8E0,1.2E1,2E0,5E0,3.48E2,4.3E1,1E0,4E0,6E0,1E0,6.3E1,2E0,1.6E1,9.9E1,5E0,3E0,7E0,5E0,1E0,1E0,4E0,1E0,1.7E1,3.31E2,2.2E1,2.1E1,1E0,3E0,2.9E1,3.4E1,2E0,1.4E1,1E0,9.8E1,3E0,2E0,6E0,1E0,3E0,2E0,1.3E1,4E0,3.29E2,2E0,3E0,1.9E1,1.2E1,9E0,1.2E1,1.7E1,3.1E1,3E0],"tree_param":{"num_deleted":"0","num_feature":"8","num_nodes":"69","size_leaf_vector":"0"}},{"base_weights":[4.030683E-6,7.0923707E-4,-1.7219939E-3,-2.2962576E-4,2.3876438E-3,-9.665957E-3,-1.3468578E-3,3.3455284E-4,-6.9893315E-3,7.642042E-4,8.563073E-3,1.3524701E-2,-1.5984148E-3,-4.7252403E-4,4.3806764E-3,-1.0488644E-2,4.090277E-3,2.8754215E-4,7.8186095E-3,1.3808271E-2,3.97144E-3,1.9449296E-3,-2.2427428E-3,1.4145789E-3,-2.9903087E-3,1.1514164E-2,-1.068219E-4,-2.6915665E-3,-2.1242818E-2,1.0807205E-2,-6.229053E-3,4.4452567E-3,-7.981913E-4,1.0060513E-2,3.0615777E-3,7.2243214E-3,2.0300739E-2,1.1156998E-3,1.440154E-2,8.953502E-3,-2.0567733E-3,-1.6722941E-3,-1.3331325E-2,-6.3974556E-5,7.7627026E-3,-2.4512464E-3,-1.4641166E-2,6.907126E-3,2.1189628E-2,1.8555768E-3,-9.504971E-3,-5.8907517E-3,-7.55528E-4,-2.451592E-2,-8.706708E-3,1.342532E-2,1.4764294E-3,-8.718237E-3,-6.2534213E-4,9.11058E-4,1.839984E-2,-7.773855E-3,3.8804347E-4,1.2282565E-2,5.861521E-4,-3.8644671E-3,6.658415E-3,-4.7186017E-4,1.1151056E-2,-4.060332E-3,4.627352E-3,3.9639473E-3,1.6559422E-2,3.008594E-3,1.0063655E-2,-9.647059E-3,8.009555E-4,-1.179414E-2,-1.4401359E-3,-7.823353E-3,-1.8067503E-2],"categories":[],"categories_nodes":[],"categories_segments":[],"categories_sizes":[],"default_left":[1,1,1,1,1,0,1,1,1,1,1,0,1,1,1,1,1,1,1,1,1,1,1,1,1,1,1,1,1,1,1,1,1,1,1,1,0,1,1,1,1,1,1,0,0,0,0,0,0,0,0,0,0,0,0,0,0,0,0,0,0,0,0,0,0,0,0,0,0,0,0,0,0,0,0,0,0,0,0,0,0],"id":23,"left_children":[1,3,5,7,9,-1,11,13,15,17,19,-1,21,23,25,27,29,31,33,35,37,39,41,43,45,47,49,51,53,55,57,59,61,63,65,67,-1,69,71,73,75,77,79,-1,-1,-1,-1,-1,-1,-1,-1,-1,-1,-1,-1,-1,-1,-1,-1,-1,-1,-1,-1,-1,-1,-1,-1,-1,-1,-1,-1,-1,-1,-1,-1,-1,-1,-1,-1,-1,-1],"loss_changes":[7.595391E-4,6.986248E-4,5.263735E-4,1.0892374E-3,1.5875006E-3,0E0,6.7256007E-4,8.6417067E-4,8.9586375E-4,4.2479788E-4,7.3993416E-4,0E0,3.9705104E-4,1.0542715E-3,1.4097365E-3,1.3682926E-3,4.8320385E-4,5.4524856E-4,5.451741E-5,4.9453205E-4,5.4985966E-4,7.7566336E-4,9.0122427E-4,1.1925236E-3,5.6076207E-4,6.114193E-4,5.340388E-4,6.368057E-5,7.377076E-5,7.7894656E-5,3.639412E-5,1.2161934E-3,7.973949E-4,9.8063145E-5,1.2537866E-4,2.772495E-4,0E0,3.096114E-4,2.44517E-5,3.572012E-5,3.981645E-4,3.1199655E-4,4.1258754E-5,0E0,0E0,0E0,0E0,0E0,0E0,0E0,0E0,0E0,0E0,0E0,0E0,0E0,0E0,0E0,0E0,0E0,0E0,0E0,0E0,0E0,0E0,0E0,0E0,0E0,0E0,0E0,0E0,0E0,0E0,0E0,0E0,0E0,0E0,0E0,0E0,0E0,0E0],"parents":[2147483647,0,0,1,1,2,2,3,3,4,4,6,6,7,7,8,8,9,9,10,10,12,12,13,13,14,14,15,15,16,16,17,17,18,18,19,19,20,20,21,21,22,22,23,23,24,24,25,25,26,26,27,27,28,28,29,29,30,30,31,31,32,32,33,33,34,34,35,35,37,37,38,38,39,39,40,40,41,41,42,42],"right_children":[2,4,6,8,10,-1,12,14,16,18,20,-1,22,24,26,28,30,32,34,36,38,40,42,44,46,48,50,52,54,56,58,60,62,64,66,68,-1,70,72,74,76,78,80,-1,-1,-1,-1,-1,-1,-1,-1,-1,-1,-1,-1,-1,-1,-1,-1,-1,-1,-1,-1,-1,-1,-1,-1,-1,-1,-1,-1,-1,-1,-1,-1,-1,-1,-1,-1,-1,-1],"split_conditions":[6.277778E1,1.1765353E1,1.1405109E1,1.1745172E1,5.485E1,-2.948117E-3,1.1417347E1,1.1687159E1,1.5175228E0,1.2120405E1,1.4965562E0,4.125034E-3,1.0815611E0,1.1571412E1,1.17137375E1,4.5E1,1.1759367E1,1.1808517E1,1.2236074E1,1.4250352E0,1.5950379E0,1.1780263E1,2.2911127E0,1.154439E1,1.1683643E1,1.1695635E1,5.75E1,1.1750225E1,1.1758196E1,5.222222E1,5.5E1,1.1806013E1,1.1818952E1,3.75E1,3E1,1.183379E1,6.1917254E-3,1.5208821E0,1.1936328E1,8.5511726E-1,7.75E1,1.1496065E0,1.174612E1,-1.951224E-5,2.3676243E-3,-7.4763014E-4,-4.465556E-3,2.1066735E-3,6.4628366E-3,5.6595093E-4,-2.8990163E-3,-1.7966793E-3,-2.3043604E-4,-7.4773557E-3,-2.6555462E-3,4.0947227E-3,4.5031097E-4,-2.6590624E-3,-1.9072935E-4,2.778727E-4,5.6119515E-3,-2.3710257E-3,1.1835326E-4,3.7461824E-3,1.7877639E-4,-1.1786625E-3,2.0308166E-3,-1.4391735E-4,3.401072E-3,-1.2384014E-3,1.4113424E-3,1.209004E-3,5.050624E-3,9.176212E-4,3.0694148E-3,-2.9423533E-3,2.4429144E-4,-3.5972127E-3,-4.3924144E-4,-2.3861227E-3,-5.5105886E-3],"split_indices":[0,1,1,1,0,0,1,1,5,1,5,0,5,1,1,0,1,1,1,5,5,1,7,1,1,1,0,1,1,0,0,1,1,0,0,1,0,7,1,5,0,5,1,0,0,0,0,0,0,0,0,0,0,0,0,0,0,0,0,0,0,0,0,0,0,0,0,0,0,0,0,0,0,0,0,0,0,0,0,0,0],"split_type":[0,0,0,0,0,0,0,0,0,0,0,0,0,0,0,0,0,0,0,0,0,0,0,0,0,0,0,0,0,0,0,0,0,0,0,0,0,0,0,0,0,0,0,0,0,0,0,0,0,0,0,0,0,0,0,0,0,0,0,0,0,0,0,0,0,0,0,0,0,0,0,0,0,0,0,0,0,0,0,0,0],"sum_hessian":[6.22E2,4.42E2,1.8E2,2.84E2,1.58E2,7E0,1.73E2,2.63E2,2.1E1,1.26E2,3.2E1,2E0,1.71E2,2.2E2,4.3E1,1.6E1,5E0,1.19E2,7E0,1.4E1,1.8E1,2.6E1,1.45E2,1.26E2,9.4E1,1.6E1,2.7E1,1E1,6E0,3E0,2E0,2.4E1,9.5E1,4E0,3E0,8E0,6E0,1.5E1,3E0,9E0,1.7E1,1.39E2,6E0,1.03E2,2.3E1,9.1E1,3E0,1.2E1,4E0,2.3E1,4E0,3E0,7E0,4E0,2E0,2E0,1E0,1E0,1E0,2E1,4E0,1.3E1,8.2E1,3E0,1E0,1E0,2E0,3E0,5E0,6E0,9E0,1E0,2E0,2E0,7E0,4E0,1.3E1,2E0,1.37E2,4E0,2E0],"tree_param":{"num_deleted":"0","num_feature":"8","num_nodes":"81","size_leaf_vector":"0"}},{"base_weights":[1.0936238E-4,-1.3034061E-2,2.3783086E-4,-1.951016E-2,-4.918471E-3,2.8636941E-5,3.4936974E-3,4.2008758E-3,-1.6138256E-2,-3.5589444E-4,1.8444075E-3,5.160926E-3,-5.9804716E-3,7.497281E-3,-1.1959672E-3,-4.8387286E-5,-1.0522139E-2,5.029389E-3,4.2780416E-4,2.7775285E-3,7.6769413E-3,-2.616018E-3,-1.140137E-2,-1.2647132E-4,1.1992683E-2,-7.356073E-3,-1.4749843E-2,2.1803326E-3,1.001128E-2,-7.438231E-4,4.501762E-3,8.562785E-3,-1.6824331E-3,1.3025269E-2,4.547979E-3,-7.474199E-3,8.408353E-3,4.7942554E-5,-5.7111396E-3,-1.1026308E-2,4.8832446E-3,8.0117583E-4,-1.8837892E-2,1.1818341E-3,1.107515E-2,9.0583164E-4,1.7448181E-2,1.6877418E-3,-1.9400313E-3,5.54141E-3,-1.8505156E-3,1.49508715E-2,-1.56302E-3,8.040823E-3,-3.458841E-3,1.4553253E-2,3.456667E-3,-2.611031E-3,6.428985E-3],"categories":[],"categories_nodes":[],"categories_segments":[],"categories_sizes":[],"default_left":[1,1,1,0,1,1,1,1,0,1,1,1,1,0,0,1,1,1,1,1,1,1,0,1,0,1,1,1,1,1,1,1,1,1,1,0,0,0,0,0,0,0,0,0,0,0,0,0,0,0,0,0,0,0,0,0,0,0,0],"id":24,"left_children":[1,3,5,-1,7,9,11,13,-1,15,17,19,21,-1,-1,23,25,27,29,31,33,35,-1,37,-1,39,41,43,45,47,49,51,53,55,57,-1,-1,-1,-1,-1,-1,-1,-1,-1,-1,-1,-1,-1,-1,-1,-1,-1,-1,-1,-1,-1,-1,-1,-1],"loss_changes":[1.0466026E-3,2.1938398E-4,4.174188E-4,0E0,4.770632E-4,4.0352982E-4,6.1530224E-4,6.233704E-5,0E0,1.4906848E-3,4.5354586E-4,1.7057033E-4,7.960398E-5,0E0,0E0,4.3777665E-4,7.889175E-5,4.1817647E-4,3.4224286E-4,4.7884264E-4,1.9178202E-4,3.3063765E-4,0E0,4.5028198E-4,0E0,5.0305587E-4,3.32959E-4,1.734217E-4,7.2907447E-4,1.6615911E-4,1.15920586E-4,5.4084463E-4,2.1780911E-4,2.2797612E-5,1.6491383E-4,0E0,0E0,0E0,0E0,0E0,0E0,0E0,0E0,0E0,0E0,0E0,0E0,0E0,0E0,0E0,0E0,0E0,0E0,0E0,0E0,0E0,0E0,0E0,0E0],"parents":[2147483647,0,0,1,1,2,2,4,4,5,5,6,6,7,7,9,9,10,10,11,11,12,12,15,15,16,16,17,17,18,18,19,19,20,20,21,21,23,23,25,25,26,26,27,27,28,28,29,29,30,30,31,31,32,32,33,33,34,34],"right_children":[2,4,6,-1,8,10,12,14,-1,16,18,20,22,-1,-1,24,26,28,30,32,34,36,-1,38,-1,40,42,44,46,48,50,52,54,56,58,-1,-1,-1,-1,-1,-1,-1,-1,-1,-1,-1,-1,-1,-1,-1,-1,-1,-1,-1,-1,-1,-1,-1,-1],"split_conditions":[1.681E2,5.5E1,1.1980106E1,-5.9505985E-3,7.5E1,9.68639E-1,9.9399996E-1,6.5E1,-4.922168E-3,3.9069345E2,9.796808E-1,5.75E1,1.125E2,2.2866707E-3,-3.6477E-4,2.2047143E0,1.1904985E1,1.1479883E1,1.0131685E0,3.75E1,6.5E1,8.75E1,-3.477418E-3,2.1841908E0,3.6577682E-3,6E1,3.5E1,1.5583334E2,5.5E1,9.8835003E-1,9.485E1,5.42E2,1.1983692E1,1.210066E1,2.161E2,-2.2796306E-3,2.5645476E-3,1.4622479E-5,-1.7418977E-3,-3.363024E-3,1.4893897E-3,2.4435864E-4,-5.745557E-3,3.604594E-4,3.377921E-3,2.7627865E-4,5.3216955E-3,5.1476125E-4,-5.9170957E-4,1.69013E-3,-5.6440727E-4,4.560016E-3,-4.7672112E-4,2.452451E-3,-1.0549466E-3,4.438742E-3,1.0542835E-3,-7.963645E-4,1.9608405E-3],"split_indices":[2,0,1,0,0,3,3,0,0,2,3,0,0,0,0,7,1,1,3,0,0,0,0,7,0,0,0,0,0,3,0,2,1,1,2,0,0,0,0,0,0,0,0,0,0,0,0,0,0,0,0,0,0,0,0,0,0,0,0],"split_type":[0,0,0,0,0,0,0,0,0,0,0,0,0,0,0,0,0,0,0,0,0,0,0,0,0,0,0,0,0,0,0,0,0,0,0,0,0,0,0,0,0,0,0,0,0,0,0,0,0,0,0,0,0,0,0,0,0,0,0],"sum_hessian":[6.17E2,5E0,6.12E2,2E0,3E0,5.76E2,3.6E1,2E0,1E0,4.76E2,1E2,3.1E1,5E0,1E0,1E0,4.63E2,1.3E1,3E1,7E1,1.7E1,1.4E1,4E0,1E0,4.61E2,2E0,9E0,4E0,2E1,1E1,5.5E1,1.5E1,7E0,1E1,4E0,1E1,3E0,1E0,4.48E2,1.3E1,7E0,2E0,1E0,3E0,1.9E1,1E0,5E0,5E0,1.8E1,3.7E1,1.3E1,2E0,4E0,3E0,1E0,9E0,3E0,1E0,2E0,8E0],"tree_param":{"num_deleted":"0","num_feature":"8","num_nodes":"59","size_leaf_vector":"0"}},{"base_weights":[3.1881663E-4,5.918979E-4,-2.626327E-3,4.5779222E-4,5.7199756E-3,-1.9944299E-3,-1.29144E-2,1.5028511E-4,2.191536E-3,4.4826497E-3,9.175062E-3,-2.4758796E-3,4.5222975E-3,7.991468E-4,-1.7011585E-3,1.1060266E-2,1.2772687E-3,5.398825E-3,1.07155E-3,-2.778488E-3,6.175965E-3,1.1510521E-2,-1.6439507E-3,-3.7260482E-4,1.7257379E-3,-2.7889912E-3,2.8922716E-3,2.0198475E-3,1.3737097E-2,-7.7807764E-3,2.1168506E-3,8.279979E-3,4.158699E-3,-3.6395937E-3,3.855129E-3,-1.9505277E-3,-4.5251627E-3,-5.5680126E-3,3.1020865E-3,3.912868E-4,-3.7467708E-3,3.0054117E-3,-1.8845671E-3,-3.6580868E-3,1.8739149E-3,1.1913462E-2,-2.9267394E-3,-1.4291361E-3,-1.5773252E-2,3.700229E-3,-4.6771046E-4,-1.1639992E-3,5.8457553E-3,-2.8633713E-3,4.099208E-3,-6.707592E-3,-1.0727303E-3],"categories":[],"categories_nodes":[],"categories_segments":[],"categories_sizes":[],"default_left":[1,1,1,1,1,1,0,1,1,1,0,1,1,1,1,1,1,1,1,1,0,0,1,1,1,1,1,0,0,1,1,0,1,0,0,1,1,0,0,0,0,0,0,0,0,0,0,0,0,0,0,0,0,0,0,0,0],"id":25,"left_children":[1,3,5,7,9,11,-1,13,15,17,-1,19,21,23,25,27,29,31,33,35,-1,-1,37,39,41,43,45,-1,-1,47,49,-1,51,-1,-1,53,55,-1,-1,-1,-1,-1,-1,-1,-1,-1,-1,-1,-1,-1,-1,-1,-1,-1,-1,-1,-1],"loss_changes":[5.2110874E-4,4.0450238E-4,3.317983E-4,3.0782472E-4,2.2997381E-5,1.7748289E-4,0E0,5.924142E-4,6.913029E-4,3.484203E-5,0E0,1.4806588E-4,1.9128722E-4,3.969362E-4,6.4766756E-4,1.658505E-4,6.248683E-4,1.2960227E-6,6.648647E-5,6.203621E-5,0E0,0E0,7.314369E-5,4.190206E-4,9.4814633E-4,4.2831613E-4,1.3472277E-3,0E0,0E0,3.3281517E-4,3.0456367E-4,0E0,8.762168E-5,0E0,0E0,2.0502372E-4,1.058249E-4,0E0,0E0,0E0,0E0,0E0,0E0,0E0,0E0,0E0,0E0,0E0,0E0,0E0,0E0,0E0,0E0,0E0,0E0,0E0,0E0],"parents":[2147483647,0,0,1,1,2,2,3,3,4,4,5,5,7,7,8,8,9,9,11,11,12,12,13,13,14,14,15,15,16,16,17,17,18,18,19,19,22,22,23,23,24,24,25,25,26,26,29,29,30,30,32,32,35,35,36,36],"right_children":[2,4,6,8,10,12,-1,14,16,18,-1,20,22,24,26,28,30,32,34,36,-1,-1,38,40,42,44,46,-1,-1,48,50,-1,52,-1,-1,54,56,-1,-1,-1,-1,-1,-1,-1,-1,-1,-1,-1,-1,-1,-1,-1,-1,-1,-1,-1,-1],"split_conditions":[8.635E1,1.2120405E1,4.059E1,3.5103874E1,1.2358355E1,1.203708E1,-3.938892E-3,2.5054409E1,3.388889E1,5.25E1,2.798394E-3,3.98E1,1.2160653E1,1.6070154E1,6.277778E1,2.45E1,3.89E1,2.25E1,5.75E1,1.178006E1,1.8836694E-3,3.5107092E-3,1.125E2,1.5597291E1,5.75E1,3.3605423E1,1.1808474E1,6.160535E-4,4.189815E-3,3.59E1,3.9728146E1,2.5253936E-3,2.75E1,-1.1100761E-3,1.1758144E-3,1.1728106E1,1.1958942E1,-1.6982439E-3,9.461364E-4,1.19342476E-4,-1.1427652E-3,9.166506E-4,-5.7479297E-4,-1.1157165E-3,5.7154405E-4,3.6336058E-3,-8.926555E-4,-4.3588653E-4,-4.8108418E-3,1.12857E-3,-1.426517E-4,-3.5501976E-4,1.7829554E-3,-8.7332824E-4,1.2502584E-3,-2.0458156E-3,-3.2718276E-4],"split_indices":[0,1,4,4,1,1,0,4,0,0,0,4,1,4,0,0,0,0,0,1,0,0,0,4,0,4,1,0,0,4,4,0,0,0,0,1,1,0,0,0,0,0,0,0,0,0,0,0,0,0,0,0,0,0,0,0,0],"split_type":[0,0,0,0,0,0,0,0,0,0,0,0,0,0,0,0,0,0,0,0,0,0,0,0,0,0,0,0,0,0,0,0,0,0,0,0,0,0,0,0,0,0,0,0,0,0,0,0,0,0,0,0,0,0,0,0,0],"sum_hessian":[6.45E2,5.91E2,5.4E1,5.77E2,1.4E1,5.2E1,2E0,4.91E2,8.6E1,1.2E1,2E0,4.9E1,3E0,3.64E2,1.27E2,7E0,7.9E1,9E0,3E0,4.8E1,1E0,1E0,2E0,1.61E2,2.03E2,1.03E2,2.4E1,2E0,5E0,6E0,7.3E1,1E0,8E0,1E0,2E0,3.4E1,1.4E1,1E0,1E0,1.32E2,2.9E1,1.5E2,5.3E1,8.7E1,1.6E1,9E0,1.5E1,4E0,2E0,4.5E1,2.8E1,2E0,6E0,3E1,4E0,8E0,6E0],"tree_param":{"num_deleted":"0","num_feature":"8","num_nodes":"57","size_leaf_vector":"0"}},{"base_weights":[-3.581063E-4,-1.542161E-4,-2.8848618E-3,-8.048291E-4,5.6897075E-4,-3.9374847E-3,2.2309604E-3,-2.8101583E-6,-7.154068E-3,4.7110603E-3,1.6626931E-5,-6.917118E-3,-2.4660118E-3,4.884597E-3,-9.499066E-3,-4.7162673E-4,5.1347553E-3,-1.210326E-2,-5.0560683E-3,1.443103E-4,7.195455E-3,-8.911934E-3,3.0342155E-4,-2.219218E-3,-8.758494E-3,-4.942258E-3,1.4538582E-3,8.577538E-3,-9.527281E-4,3.3435543E-5,-1.3253045E-2,1.0978707E-2,8.964703E-4,-5.7000993E-3,-1.5422016E-2,7.6559186E-4,-8.009431E-3,3.2682966E-3,-5.507727E-3,-3.808846E-3,8.486328E-3,1.0135137E-2,1.4232284E-4,-3.8454682E-3,2.1428913E-3,5.2341223E-3,-5.848758E-3,6.73922E-3,-7.2934926E-3,1.0744609E-2,-4.5374036E-5,-1.7518997E-3,7.223934E-4,-4.0420803E-4,1.1991978E-2,-7.970469E-3,-1.9184293E-2,-5.3607724E-3,1.5733674E-2,2.9833715E-3,-5.588351E-3,-2.2536158E-3,3.1539996E-3,-1.1880606E-2,-3.7244305E-3,4.6925675E-3,-4.0629357E-3,-8.564393E-3,-6.1515224E-4,1.0759408E-2,3.7317816E-3,-3.7705456E-4,3.2841996E-3,-1.6538104E-3,-5.210221E-3,-4.037624E-3,-7.0100296E-3,-6.434272E-4,9.307341E-3],"categories":[],"categories_nodes":[],"categories_segments":[],"categories_sizes":[],"default_left":[1,1,1,1,1,1,1,1,1,1,1,1,1,1,0,1,1,1,1,1,1,0,1,1,0,1,1,1,1,1,1,1,1,0,0,1,1,1,1,0,1,0,1,1,0,0,1,1,0,0,0,0,0,0,0,0,0,0,0,0,0,0,0,0,0,0,0,0,0,0,0,0,0,0,0,0,0,0,0],"id":26,"left_children":[1,3,5,7,9,11,13,15,17,19,21,23,25,27,-1,29,31,33,35,37,39,-1,41,43,-1,45,47,49,51,53,55,57,59,-1,-1,61,63,65,67,-1,69,-1,71,73,-1,-1,75,77,-1,-1,-1,-1,-1,-1,-1,-1,-1,-1,-1,-1,-1,-1,-1,-1,-1,-1,-1,-1,-1,-1,-1,-1,-1,-1,-1,-1,-1,-1,-1],"loss_changes":[3.3802883E-4,2.870014E-4,2.726509E-4,1.6345792E-3,6.611125E-4,1.6270473E-4,3.2654413E-4,6.9127436E-4,3.126074E-4,3.8471248E-4,6.582338E-4,9.302079E-5,2.8867566E-4,1.8062722E-4,0E0,1.6982167E-3,5.845979E-4,1.2459839E-4,4.7035574E-4,2.4754042E-4,3.4483627E-4,0E0,3.929428E-4,4.3709828E-5,0E0,1.9666113E-4,6.0394744E-4,9.3919836E-5,6.620399E-6,1.3341763E-3,1.6041473E-4,8.612815E-4,2.1966985E-4,0E0,0E0,7.9218895E-5,2.5433535E-4,1.1304054E-4,6.950642E-5,0E0,1.759975E-4,0E0,4.02666E-4,3.3475662E-6,0E0,0E0,7.4508716E-6,1.5766476E-4,0E0,0E0,0E0,0E0,0E0,0E0,0E0,0E0,0E0,0E0,0E0,0E0,0E0,0E0,0E0,0E0,0E0,0E0,0E0,0E0,0E0,0E0,0E0,0E0,0E0,0E0,0E0,0E0,0E0,0E0,0E0],"parents":[2147483647,0,0,1,1,2,2,3,3,4,4,5,5,6,6,7,7,8,8,9,9,10,10,11,11,12,12,13,13,15,15,16,16,17,17,18,18,19,19,20,20,22,22,23,23,25,25,26,26,27,27,28,28,29,29,30,30,31,31,32,32,35,35,36,36,37,37,38,38,40,40,42,42,43,43,46,46,47,47],"right_children":[2,4,6,8,10,12,14,16,18,20,22,24,26,28,-1,30,32,34,36,38,40,-1,42,44,-1,46,48,50,52,54,56,58,60,-1,-1,62,64,66,68,-1,70,-1,72,74,-1,-1,76,78,-1,-1,-1,-1,-1,-1,-1,-1,-1,-1,-1,-1,-1,-1,-1,-1,-1,-1,-1,-1,-1,-1,-1,-1,-1,-1,-1,-1,-1,-1,-1],"split_conditions":[8.555556E1,1.9821999E0,2.581151E0,9.365279E-1,2.020163E0,1.103E2,1.1472222E2,9.339267E-1,9.36993E-1,9.4217134E-1,9.4649416E-1,8.4985757E-1,2.1707735E0,1.0105E0,-2.897215E-3,9.318408E-1,1.9454076E0,3.5E1,9.376055E-1,9.4009614E-1,2.0555555E1,-2.71814E-3,1.777778E1,8.4679866E-1,-2.6713407E-3,1.2085E2,9.819E-1,1.0222222E2,9.985E1,9.299273E-1,5.5E1,3.388889E1,5.5E1,-1.7385304E-3,-4.703715E-3,9.371085E-1,9.407E-1,5.75E1,3.5E1,-1.161698E-3,5.5E1,3.0912168E-3,6.897E1,9.055556E1,6.5358187E-4,1.5964074E-3,9.4495E-1,1.5583334E2,-2.2245152E-3,3.2771057E-3,-1.38390815E-5,-5.3432945E-4,2.2033E-4,-1.2328345E-4,3.6575533E-3,-2.4309931E-3,-5.8512096E-3,-1.6350356E-3,4.798771E-3,9.0992835E-4,-1.7044471E-3,-6.8735285E-4,9.619699E-4,-3.623585E-3,-1.1359513E-3,1.4312331E-3,-1.2391955E-3,-2.61214E-3,-1.8762144E-4,3.2816194E-3,1.1381934E-3,-1.1500164E-4,1.001681E-3,-5.0441216E-4,-1.5891173E-3,-1.2314754E-3,-2.1380591E-3,-1.962453E-4,2.838739E-3],"split_indices":[0,7,7,3,7,0,0,3,3,3,3,3,7,3,0,3,7,0,3,3,0,0,0,3,0,0,3,0,0,3,0,0,0,0,0,3,3,0,0,0,0,0,0,0,0,0,3,0,0,0,0,0,0,0,0,0,0,0,0,0,0,0,0,0,0,0,0,0,0,0,0,0,0,0,0,0,0,0,0],"split_type":[0,0,0,0,0,0,0,0,0,0,0,0,0,0,0,0,0,0,0,0,0,0,0,0,0,0,0,0,0,0,0,0,0,0,0,0,0,0,0,0,0,0,0,0,0,0,0,0,0,0,0,0,0,0,0,0,0,0,0,0,0,0,0,0,0,0,0,0,0,0,0,0,0,0,0,0,0,0,0],"sum_hessian":[6.56E2,6.08E2,4.8E1,3.2E2,2.88E2,4E1,8E0,2.85E2,3.5E1,3.3E1,2.55E2,1.2E1,2.8E1,7E0,1E0,2.62E2,2.3E1,9E0,2.6E1,1.2E1,2.1E1,7E0,2.48E2,4E0,8E0,1.7E1,1.1E1,4E0,3E0,2.53E2,9E0,9E0,1.4E1,4E0,5E0,9E0,1.7E1,8E0,4E0,2E0,1.9E1,3E0,2.45E2,3E0,1E0,1E0,1.6E1,7E0,4E0,3E0,1E0,2E0,1E0,2.45E2,8E0,6E0,3E0,2E0,7E0,1.1E1,3E0,4E0,5E0,8E0,9E0,7E0,1E0,2E0,2E0,1.2E1,7E0,2.11E2,3.4E1,2E0,1E0,8E0,8E0,2E0,5E0],"tree_param":{"num_deleted":"0","num_feature":"8","num_nodes":"79","size_leaf_vector":"0"}},{"base_weights":[3.1137143E-4,-1.9909351E-4,1.3821023E-3,-5.1236143E-3,1.1065683E-4,5.512485E-3,6.5906334E-4,-1.2358213E-3,-1.0312803E-2,3.7365817E-3,-2.4455448E-4,2.5623376E-3,7.240876E-3,1.6207622E-3,-3.3165183E-4,-9.371042E-3,2.2568393E-3,-6.0319906E-4,1.4049082E-2,-3.8977128E-3,6.1300886E-4,9.864836E-3,4.4357376E-3,9.4785827E-4,7.6463465E-3,-5.149993E-3,8.7753974E-4,-4.0603676E-4,7.6841004E-3,2.6261057E-3,-6.355628E-3,6.342119E-3,1.7547043E-2,-3.3354214E-3,-1.2622811E-2,1.57203E-3,-1.0945603E-3,1.9585318E-3,-1.220892E-3,-5.656141E-3,-1.9644406E-3,3.4444889E-3,-6.482248E-4,-1.2858808E-3,1.0152385E-3,8.164929E-3,9.740125E-4,-3.0949106E-3,-7.310948E-3,-6.531099E-3,-1.595602E-3,1.0090816E-3,9.462294E-3,-4.837719E-3,-2.6893275E-4,5.5324915E-4,1.1917231E-2,-2.2905746E-3,2.162569E-3,-3.676994E-3,-7.392738E-3,-1.5774494E-3,4.657541E-3,-6.8810806E-3,-5.3349275E-5],"categories":[],"categories_nodes":[],"categories_segments":[],"categories_sizes":[],"default_left":[1,1,1,1,1,1,1,1,0,1,1,0,1,1,1,0,1,1,1,1,1,0,0,1,0,1,1,1,0,1,1,0,0,1,0,1,1,1,1,1,0,1,1,0,0,0,0,0,0,0,0,0,0,0,0,0,0,0,0,0,0,0,0,0,0],"id":27,"left_children":[1,3,5,7,9,11,13,15,-1,17,19,-1,21,23,25,-1,27,29,31,33,35,-1,-1,37,-1,39,41,43,-1,45,47,-1,-1,49,-1,51,53,55,57,59,-1,61,63,-1,-1,-1,-1,-1,-1,-1,-1,-1,-1,-1,-1,-1,-1,-1,-1,-1,-1,-1,-1,-1,-1],"loss_changes":[3.539063E-4,6.7020534E-4,6.205302E-4,5.11792E-4,5.3413317E-4,1.3951573E-4,1.710833E-4,4.75766E-4,0E0,1.6643719E-3,1.1865932E-3,0E0,9.609293E-5,3.6172452E-4,5.230598E-4,0E0,1.7654551E-4,5.182519E-4,1.8525985E-4,3.11133E-4,5.044623E-4,0E0,0E0,1.8431875E-4,0E0,1.7911312E-5,2.8422513E-4,1.2559981E-5,0E0,1.5675901E-4,8.5235515E-6,0E0,0E0,3.732121E-4,0E0,8.654887E-4,3.417395E-4,7.911097E-4,1.0267272E-4,2.4371664E-5,0E0,1.7182756E-4,1.7019047E-4,0E0,0E0,0E0,